%YAML:1.0
---
opencv_ml_svm:
   format: 3
   svmType: C_SVC
   kernel:
      type: LINEAR
   C: 1.0000000000000001e-01
   term_criteria: { iterations:100 }
   var_count: 400
   class_count: 2
   class_labels: !!opencv-matrix
      rows: 2
      cols: 1
      dt: i
      data: [ 0, 1 ]
   sv_total: 1
   support_vectors:
      - [ -3.64895997e-04, -4.53784422e-04, -6.81482197e-04,
          -6.14966906e-04, -3.82885264e-05, -4.55534784e-04,
          2.02481810e-04, 6.23259111e-04, -1.97951775e-03,
          -8.06586642e-04, -4.09342756e-04, -9.79228644e-04,
          -5.08240017e-04, -1.13058696e-03, -1.30611224e-04,
          -4.92230698e-04, -2.78765685e-04, -6.83258346e-04,
          -7.29976629e-04, -7.76421104e-04, -7.04190403e-04,
          -6.75042393e-04, -1.11388101e-03, -5.45208517e-04,
          -1.10104229e-04, -3.84566985e-04, -1.03447807e-03,
          1.40770723e-03, -2.28419405e-04, -3.47180205e-04,
          -1.37384830e-03, -1.15114404e-03, -4.38040210e-04,
          -4.10261069e-04, -8.60277913e-04, -8.20434827e-04,
          -6.04790053e-04, -3.28087015e-04, -6.03452325e-04,
          -1.25990785e-03, -6.52920222e-04, -8.46060400e-04,
          -8.82213004e-04, -4.32278670e-04, -1.40883541e-03,
          -1.06556596e-04, -7.60843919e-04, -3.45478707e-04,
          7.78258764e-05, 1.08185865e-03, -4.45079320e-04,
          -2.22828565e-03, 9.04430693e-04, -1.29653944e-03,
          -8.10435915e-04, -2.42089140e-04, -2.62563321e-04,
          -7.39553710e-04, -8.83514818e-04, -5.71562385e-04,
          -8.53271806e-04, -5.29718003e-04, -4.47592407e-04,
          -4.45795798e-04, -1.31105422e-04, -6.28356996e-04,
          -3.35068587e-04, 9.74914874e-04, 3.77375807e-04,
          1.47555838e-03, 5.67089184e-04, -5.61690831e-04,
          4.38347925e-04, -8.61900800e-04, -7.94704887e-04,
          -7.99517380e-04, -1.85783101e-05, -7.13187910e-04,
          -7.78600166e-04, -1.11486844e-03, -7.27169274e-04,
          -6.48756919e-04, -6.58841222e-04, -3.65124404e-04,
          -5.01153176e-04, -2.65835784e-04, 4.87971090e-04,
          -3.21063097e-04, -4.53000452e-04, 1.98524725e-03,
          -1.68830913e-04, 1.07839660e-04, -3.95810610e-04,
          -9.03458509e-04, -7.26455532e-04, -9.18232137e-04,
          -8.84146080e-04, -8.14849569e-04, -5.52383659e-04,
          -8.83086992e-04, -5.42087480e-04, -7.92630482e-04,
          -9.16535442e-04, -2.92119221e-04, -6.50956703e-04,
          -3.28612106e-04, -5.79712738e-04, -9.49869573e-05,
          -2.93817720e-04, 2.95188918e-04, -9.45030013e-04,
          -2.89833231e-04, -1.59704243e-03, -8.01074435e-04,
          -9.82271391e-04, -3.04588175e-04, -8.34362290e-04,
          -5.64582122e-04, -6.35929056e-04, -9.11861367e-04,
          -7.45772850e-04, -8.60187574e-04, -1.04086730e-03,
          -7.90536928e-04, -4.77695430e-04, -6.22971565e-04,
          -3.97720170e-04, -2.44051917e-04, 1.64670928e-04,
          1.35533061e-04, -1.97935128e-03, -1.62030396e-04,
          -1.11955113e-03, -5.00752416e-04, -1.26083253e-03,
          -3.74867115e-04, -8.16884451e-04, -8.01340560e-04,
          -7.56072579e-04, -5.59943961e-04, -1.05970295e-03,
          -8.39162560e-04, -6.96143892e-04, -7.62119249e-04,
          -5.29186102e-04, -6.17195794e-04, -3.67152301e-04,
          4.88003243e-05, 3.42733081e-04, 1.12232962e-03,
          -3.62246210e-04, 1.33294205e-03, -7.32946428e-05,
          -5.57502324e-04, -9.47695167e-04, -7.35917769e-04,
          -1.02363515e-03, -6.51917828e-04, -9.31813731e-04,
          -9.87907639e-04, -1.11484888e-03, -7.73360836e-04,
          -8.55093938e-04, -6.40934799e-04, -6.01683510e-04,
          -6.35302044e-04, -1.62638171e-05, -5.81658132e-05,
          8.91044037e-04, 4.64795768e-04, -3.79567849e-04,
          1.14597220e-04, -4.26191022e-04, -3.93154536e-04,
          -3.48797301e-04, -7.77346897e-04, -8.92671582e-04,
          -9.07831476e-04, -9.02895757e-04, -9.76907089e-04,
          -9.41997219e-04, -4.65593475e-04, -8.45308939e-04,
          -7.83582102e-04, -7.89488142e-04, -6.60903810e-04,
          2.67019263e-04, 3.55135475e-04, 1.27139001e-03, 4.41944030e-05,
          1.56395079e-03, -3.70812486e-04, 4.23903868e-04,
          -1.47754996e-04, -1.47268482e-04, -6.49406400e-04,
          -6.88504253e-04, -1.04361994e-03, -9.55090101e-04,
          -1.07809633e-03, -6.44606655e-04, -8.25577183e-04,
          -8.13828665e-04, -7.33964669e-04, -6.22351421e-04,
          -3.04998481e-04, 2.62724032e-04, 7.77485780e-04,
          -9.33056435e-05, 7.12224049e-04, -2.02031713e-03,
          -1.33334834e-03, -7.69419130e-05, 5.83412824e-04,
          -2.92072800e-04, -8.70340096e-04, -5.01062605e-04,
          -7.99029658e-04, -1.13432750e-03, -1.14102440e-03,
          -7.08587701e-04, -8.80071777e-04, -8.75164988e-04,
          -8.10216181e-04, -7.03552621e-04, -3.02872977e-05,
          2.37100219e-04, 1.87012053e-03, 1.02141663e-03,
          -6.28224923e-04, -3.05051508e-04, -2.24665724e-04,
          -3.20413179e-04, -1.11196809e-04, -7.21078657e-04,
          -8.03989824e-04, -1.06929638e-03, -9.86819738e-04,
          -1.04168814e-03, -1.26274268e-03, -7.80806411e-04,
          -8.73252400e-04, -7.91222148e-04, -5.72544232e-04,
          -4.89999016e-04, 4.31302833e-05, 6.25274624e-05,
          3.33671516e-04, -2.37984612e-04, 3.35407385e-04,
          2.15522567e-04, 1.56629563e-03, 1.09324197e-03, 1.56507408e-03,
          -6.36325334e-04, -6.54196658e-04, -1.00276363e-03,
          -1.07893872e-03, -9.85299936e-04, -1.13738643e-03,
          -8.41040863e-04, 3.24147375e-04, 3.56785167e-05,
          -7.11449713e-04, -2.19989204e-04, -2.28267949e-04,
          -3.97306168e-04, -1.33537792e-03, 8.70083168e-04,
          -1.35935610e-03, -1.31023536e-03, 4.94805048e-04,
          -1.80115327e-04, 6.17414480e-05, -1.41671742e-04,
          -9.20982740e-04, -1.01961219e-03, -1.00891688e-03,
          -1.00306550e-03, -1.20803353e-03, -6.01694570e-04,
          1.18257897e-03, 2.03335751e-03, -1.42755773e-04,
          -4.16574272e-04, -2.13939464e-04, 6.62977167e-04,
          1.48514076e-03, 3.88719782e-04, 6.37860649e-05,
          -2.64917407e-03, 2.12175772e-03, 1.97800880e-04,
          1.55430089e-03, -9.24410560e-05, -1.00712944e-03,
          -9.99605516e-04, -1.03861268e-03, -1.15040073e-03,
          -1.09320926e-03, 7.63180560e-06, 4.40340722e-04,
          6.61486061e-04, -7.15860981e-04, -1.82806049e-04,
          1.10080189e-04, -2.62607064e-05, -7.37725524e-04,
          9.52085247e-04, 1.20729103e-03, 1.03122322e-03, 2.02430109e-03,
          2.87809060e-04, 5.28883829e-04, 3.90774163e-04,
          -6.62490842e-04, -1.02604984e-03, -1.17309159e-03,
          -1.02423388e-03, -1.10060745e-03, 4.48152605e-06,
          -1.84460674e-04, -7.91408063e-04, -2.12063140e-04,
          -3.50292772e-04, -1.86545157e-03, -4.12935478e-04,
          1.45632494e-03, 1.16922217e-03, 3.62234168e-05, 2.86726106e-04,
          5.85107075e-04, 1.24754780e-03, 6.73155009e-05, 5.95720368e-04,
          -5.89781790e-04, -5.85104222e-04, -1.06001075e-03,
          -1.07486965e-03, -1.07615930e-03, -6.58282370e-04,
          -8.96001409e-04, 1.16346753e-03, 3.02674453e-04,
          -5.83820278e-04, -5.37706946e-04, -1.34979186e-04,
          -2.06600700e-04, 4.94238571e-04, 3.48182628e-04,
          -9.81853111e-04, 8.51421850e-04, 4.62445256e-04,
          1.91447639e-03, 4.50797263e-04, -1.25588535e-03,
          -1.12203322e-03, -1.10366975e-03, -9.07230016e-04,
          -1.05315936e-03, -6.60777150e-05, -7.40210933e-04,
          -7.97683664e-04, 2.67521944e-04, -4.51522326e-04,
          -4.86546895e-04, -1.89553495e-04, -1.81200681e-03,
          4.13374160e-04, 1.21195987e-03, -1.97468419e-03,
          -1.38091418e-04, 1.18163042e-03, 1.85533008e-03,
          -3.53532960e-04, -1.12287409e-03, -1.03286398e-03,
          -9.56655014e-04, -1.11474912e-03, -9.80529701e-04,
          -1.77233960e-04, -2.02348398e-04, -3.98918346e-04,
          -2.43569739e-04, 1.81668816e-04, -2.21274211e-04,
          4.44795878e-04, -1.96057343e-04, 6.94855189e-05,
          -4.59691655e-04, -1.39376125e-03, -3.38594575e-04,
          2.72149744e-04, -4.36922885e-04, -7.15331233e-04,
          -9.54143645e-04, -9.40751401e-04, -9.43076622e-04,
          -9.16084275e-04, -9.33171657e-04 ]
   uncompressed_sv_total: 34
   uncompressed_support_vectors:
      - [ 136., 138., 141., 146., 149., 146., 148., 151., 148., 73.,
          138., 138., 143., 134., 136., 134., 132., 129., 123., 119.,
          140., 143., 143., 145., 147., 146., 152., 144., 148., 66.,
          136., 142., 135., 139., 134., 138., 134., 130., 130., 125.,
          139., 144., 146., 150., 153., 153., 148., 151., 155., 64.,
          144., 139., 138., 140., 138., 138., 135., 133., 129., 126.,
          140., 145., 145., 148., 155., 153., 153., 153., 154., 141.,
          134., 143., 135., 138., 138., 139., 137., 135., 131., 128.,
          143., 146., 147., 148., 153., 154., 151., 157., 154., 148.,
          143., 140., 140., 138., 141., 137., 139., 138., 135., 133.,
          145., 147., 147., 149., 153., 160., 154., 157., 152., 146.,
          144., 145., 137., 140., 139., 139., 138., 140., 135., 133.,
          147., 148., 149., 149., 150., 157., 156., 152., 155., 144.,
          130., 143., 137., 138., 139., 140., 138., 137., 136., 133.,
          145., 148., 148., 149., 151., 161., 161., 173., 172., 168.,
          201., 159., 161., 140., 141., 142., 138., 139., 135., 132.,
          148., 149., 148., 151., 151., 159., 158., 173., 168., 167.,
          47., 30., 46., 141., 138., 141., 140., 137., 134., 133., 149.,
          148., 150., 151., 150., 159., 160., 171., 169., 168., 165.,
          163., 159., 166., 139., 140., 138., 138., 136., 134., 146.,
          148., 150., 150., 151., 156., 163., 171., 172., 169., 166.,
          164., 161., 162., 139., 139., 135., 138., 134., 134., 149.,
          148., 151., 152., 155., 154., 159., 173., 170., 194., 57., 31.,
          40., 161., 136., 137., 135., 135., 136., 134., 150., 149.,
          149., 151., 153., 151., 160., 170., 169., 169., 36., 164.,
          165., 162., 131., 136., 137., 137., 132., 129., 148., 152.,
          150., 151., 151., 158., 148., 171., 171., 169., 38., 162.,
          160., 157., 148., 138., 135., 135., 136., 132., 149., 151.,
          150., 150., 159., 153., 163., 199., 96., 114., 56., 129., 134.,
          136., 136., 135., 135., 135., 133., 132., 147., 153., 152.,
          152., 153., 155., 154., 154., 151., 147., 76., 126., 132.,
          142., 137., 134., 135., 135., 135., 134., 146., 150., 153.,
          153., 158., 159., 158., 147., 152., 145., 69., 133., 133.,
          136., 133., 135., 136., 137., 136., 127., 148., 150., 152.,
          152., 151., 150., 147., 151., 150., 142., 93., 129., 123.,
          134., 135., 134., 134., 137., 137., 135., 148., 147., 149.,
          154., 155., 152., 151., 151., 151., 150., 122., 125., 116.,
          134., 136., 133., 130., 133., 131., 131., 147., 150., 151.,
          149., 148., 154., 154., 152., 153., 147., 143., 125., 116.,
          133., 127., 131., 130., 130., 132., 134. ]
      - [ 136., 141., 144., 144., 147., 146., 133., 140., 143., 137.,
          135., 137., 137., 132., 133., 133., 129., 112., 123., 117.,
          140., 145., 32., 146., 147., 148., 71., 140., 141., 141., 139.,
          134., 138., 138., 134., 135., 131., 128., 126., 123., 141.,
          144., 155., 147., 153., 147., 75., 139., 144., 139., 142.,
          141., 141., 136., 135., 137., 130., 133., 130., 124., 138.,
          154., 150., 148., 153., 153., 138., 138., 136., 142., 136.,
          141., 141., 142., 139., 137., 132., 132., 131., 40., 145.,
          156., 157., 156., 150., 150., 149., 144., 142., 140., 137.,
          143., 141., 140., 135., 137., 134., 136., 129., 128., 146.,
          154., 149., 152., 159., 152., 153., 138., 138., 139., 138.,
          143., 141., 142., 143., 140., 138., 136., 135., 131., 146.,
          148., 157., 152., 159., 155., 150., 84., 140., 143., 137.,
          145., 142., 142., 139., 140., 138., 136., 134., 131., 143.,
          146., 152., 154., 158., 154., 147., 82., 137., 137., 143.,
          136., 140., 141., 139., 139., 136., 137., 135., 134., 147.,
          150., 153., 155., 157., 155., 149., 73., 122., 141., 138.,
          141., 140., 141., 137., 138., 136., 136., 133., 132., 146.,
          147., 151., 155., 159., 153., 169., 147., 164., 162., 161.,
          140., 140., 140., 138., 140., 135., 135., 133., 133., 146.,
          148., 154., 152., 172., 172., 169., 164., 143., 202., 40.,
          164., 140., 139., 138., 139., 139., 136., 133., 134., 148.,
          147., 154., 152., 172., 193., 59., 53., 163., 164., 162., 160.,
          138., 140., 136., 138., 138., 137., 134., 130., 150., 147.,
          151., 149., 172., 167., 169., 168., 166., 166., 162., 161.,
          135., 138., 138., 137., 139., 139., 135., 131., 150., 151.,
          150., 156., 171., 169., 171., 168., 167., 166., 163., 167.,
          160., 133., 139., 135., 142., 136., 138., 132., 147., 145.,
          152., 160., 170., 171., 169., 170., 37., 39., 39., 160., 161.,
          139., 134., 136., 137., 136., 135., 134., 147., 151., 152.,
          154., 168., 169., 57., 144., 19., 161., 164., 162., 158., 129.,
          135., 141., 139., 138., 133., 134., 149., 153., 153., 158.,
          169., 168., 167., 167., 165., 39., 159., 157., 153., 114.,
          134., 126., 137., 134., 132., 133., 148., 148., 150., 152.,
          167., 169., 167., 166., 166., 41., 92., 129., 136., 136., 135.,
          137., 136., 137., 134., 132., 155., 151., 147., 156., 169.,
          167., 165., 93., 136., 71., 123., 134., 135., 133., 131., 135.,
          134., 136., 134., 134., 149., 153., 150., 151., 152., 145.,
          154., 144., 138., 74., 115., 135., 133., 130., 131., 135.,
          135., 134., 134., 132. ]
      - [ 137., 139., 147., 146., 148., 148., 149., 131., 72., 137.,
          137., 136., 135., 136., 136., 133., 131., 127., 123., 118.,
          138., 142., 146., 149., 160., 151., 156., 156., 62., 139.,
          138., 142., 136., 135., 136., 133., 130., 132., 127., 44.,
          140., 146., 149., 150., 147., 152., 146., 147., 65., 140.,
          138., 136., 140., 141., 138., 134., 135., 134., 130., 126.,
          140., 150., 155., 152., 160., 157., 152., 153., 143., 133.,
          136., 136., 135., 140., 139., 139., 137., 133., 131., 128.,
          144., 146., 150., 156., 162., 158., 156., 154., 140., 143.,
          141., 139., 137., 142., 141., 135., 138., 136., 132., 130.,
          145., 146., 150., 154., 157., 149., 158., 150., 149., 137.,
          144., 139., 138., 139., 140., 141., 138., 137., 136., 132.,
          146., 146., 147., 157., 164., 154., 158., 155., 146., 67.,
          146., 138., 137., 139., 140., 139., 139., 137., 133., 134.,
          147., 147., 152., 161., 158., 160., 152., 156., 147., 72.,
          135., 135., 137., 138., 138., 139., 137., 134., 136., 132.,
          148., 145., 150., 155., 161., 156., 153., 154., 149., 66.,
          127., 162., 162., 138., 144., 142., 135., 139., 135., 135.,
          147., 150., 147., 157., 159., 161., 172., 172., 169., 165.,
          163., 161., 158., 138., 138., 139., 140., 137., 136., 132.,
          148., 150., 152., 152., 157., 160., 172., 172., 195., 44., 44.,
          14., 156., 159., 137., 137., 138., 140., 137., 133., 149.,
          149., 149., 151., 161., 160., 170., 167., 168., 165., 164.,
          162., 162., 159., 137., 139., 137., 139., 139., 133., 149.,
          149., 154., 151., 160., 160., 168., 170., 170., 168., 164.,
          162., 160., 159., 134., 137., 137., 136., 137., 138., 147.,
          151., 149., 154., 155., 161., 156., 171., 169., 167., 167.,
          34., 35., 39., 158., 136., 138., 136., 135., 135., 147., 149.,
          152., 152., 155., 160., 154., 170., 50., 31., 16., 157., 162.,
          160., 158., 134., 136., 137., 140., 133., 149., 150., 152.,
          150., 154., 157., 159., 169., 168., 166., 164., 50., 161.,
          156., 155., 129., 135., 134., 138., 137., 150., 154., 153.,
          155., 155., 151., 152., 168., 168., 165., 163., 36., 156., 99.,
          128., 138., 137., 139., 136., 136., 149., 148., 157., 155.,
          162., 159., 156., 166., 194., 112., 119., 50., 118., 133.,
          138., 135., 137., 132., 134., 133., 150., 153., 152., 151.,
          162., 155., 155., 135., 149., 142., 136., 67., 124., 129.,
          131., 134., 136., 137., 136., 132., 148., 155., 153., 152.,
          156., 150., 150., 133., 152., 143., 136., 69., 120., 112.,
          131., 130., 135., 133., 133., 134. ]
      - [ 138., 135., 140., 148., 151., 145., 144., 147., 146., 157.,
          149., 143., 146., 88., 146., 145., 137., 131., 127., 126.,
          134., 139., 141., 141., 148., 149., 145., 144., 144., 150.,
          149., 149., 144., 134., 141., 141., 154., 133., 132., 129.,
          143., 143., 149., 149., 146., 148., 144., 148., 148., 150.,
          153., 144., 144., 139., 147., 143., 145., 136., 136., 130.,
          146., 147., 148., 151., 149., 152., 148., 148., 150., 149.,
          151., 154., 135., 138., 144., 149., 145., 136., 133., 132.,
          145., 147., 152., 151., 150., 148., 148., 147., 150., 151.,
          155., 154., 84., 145., 139., 142., 139., 137., 137., 137.,
          150., 148., 148., 149., 150., 145., 147., 146., 148., 150.,
          153., 151., 94., 148., 154., 137., 138., 141., 138., 135.,
          144., 145., 148., 148., 148., 148., 148., 148., 147., 153.,
          154., 148., 137., 144., 144., 139., 139., 140., 140., 135.,
          146., 146., 147., 147., 147., 150., 148., 149., 147., 154.,
          148., 142., 148., 142., 149., 150., 140., 143., 133., 134.,
          146., 149., 148., 147., 135., 147., 150., 149., 171., 153.,
          156., 89., 141., 141., 141., 141., 141., 140., 138., 137.,
          142., 147., 147., 147., 148., 150., 151., 149., 171., 171.,
          170., 57., 148., 145., 146., 140., 139., 142., 139., 135.,
          143., 146., 148., 148., 148., 151., 147., 169., 64., 45., 171.,
          146., 167., 165., 175., 141., 137., 139., 140., 137., 145.,
          145., 150., 148., 150., 151., 152., 171., 171., 170., 170.,
          43., 56., 203., 139., 138., 139., 142., 136., 134., 147., 146.,
          148., 150., 149., 151., 166., 172., 171., 171., 170., 168.,
          168., 166., 135., 140., 139., 139., 132., 135., 143., 147.,
          148., 152., 147., 156., 172., 75., 172., 171., 169., 169.,
          167., 166., 141., 138., 138., 138., 135., 137., 146., 149.,
          149., 149., 150., 150., 170., 169., 94., 57., 35., 168., 166.,
          167., 142., 140., 136., 140., 134., 133., 145., 145., 148.,
          151., 149., 169., 170., 170., 170., 45., 164., 120., 54., 165.,
          137., 137., 137., 138., 137., 133., 146., 147., 149., 150.,
          153., 152., 170., 169., 168., 45., 167., 168., 165., 164.,
          140., 140., 140., 138., 137., 133., 145., 152., 152., 155.,
          146., 148., 155., 139., 101., 47., 163., 162., 163., 162.,
          137., 138., 140., 137., 134., 129., 148., 145., 149., 146.,
          152., 150., 146., 152., 144., 150., 142., 57., 158., 158.,
          137., 136., 136., 136., 131., 129., 150., 146., 146., 151.,
          147., 151., 148., 147., 69., 140., 136., 147., 137., 133.,
          135., 135., 133., 133., 131., 129. ]
      - [ 141., 143., 145., 144., 143., 145., 146., 147., 154., 144.,
          149., 144., 135., 144., 140., 138., 132., 132., 128., 124.,
          138., 144., 146., 145., 147., 146., 148., 158., 152., 150.,
          147., 151., 141., 143., 138., 135., 136., 134., 130., 128.,
          137., 138., 143., 147., 146., 147., 151., 149., 151., 145.,
          146., 80., 141., 142., 137., 141., 135., 135., 132., 129.,
          146., 148., 146., 145., 147., 147., 146., 157., 162., 151.,
          157., 81., 151., 140., 139., 140., 136., 138., 134., 132.,
          145., 147., 148., 147., 148., 149., 150., 153., 154., 157.,
          151., 91., 148., 137., 136., 135., 139., 138., 135., 133.,
          145., 147., 147., 147., 146., 149., 151., 156., 157., 150.,
          152., 87., 141., 143., 136., 139., 141., 138., 135., 135.,
          147., 150., 148., 148., 149., 149., 149., 155., 161., 157.,
          151., 111., 145., 143., 135., 140., 138., 139., 137., 137.,
          147., 147., 146., 148., 146., 147., 151., 156., 159., 159.,
          148., 136., 146., 137., 136., 141., 139., 139., 136., 136.,
          148., 146., 148., 150., 148., 151., 149., 155., 158., 156.,
          145., 139., 146., 141., 139., 139., 141., 139., 138., 138.,
          147., 149., 148., 148., 149., 151., 152., 153., 172., 172.,
          169., 166., 146., 137., 139., 135., 139., 139., 139., 135.,
          146., 148., 148., 149., 147., 151., 151., 173., 172., 170.,
          165., 165., 166., 162., 140., 139., 139., 140., 137., 135.,
          149., 146., 146., 151., 153., 153., 153., 171., 172., 79., 53.,
          52., 46., 42., 138., 138., 139., 140., 136., 134., 146., 148.,
          147., 151., 151., 153., 159., 171., 171., 171., 168., 168.,
          166., 162., 126., 140., 138., 136., 137., 135., 143., 148.,
          149., 152., 153., 152., 158., 171., 172., 170., 169., 168.,
          164., 162., 169., 136., 139., 133., 137., 135., 147., 149.,
          151., 153., 151., 161., 170., 170., 26., 168., 167., 167.,
          164., 162., 163., 138., 138., 134., 134., 134., 149., 150.,
          148., 154., 152., 156., 169., 169., 169., 170., 39., 55., 44.,
          45., 161., 136., 139., 134., 135., 133., 148., 152., 154.,
          155., 155., 151., 170., 168., 171., 167., 40., 165., 164.,
          162., 160., 139., 134., 132., 135., 136., 144., 146., 149.,
          156., 151., 154., 168., 170., 169., 165., 47., 164., 160.,
          160., 156., 134., 136., 133., 133., 133., 149., 149., 152.,
          151., 149., 153., 152., 153., 141., 143., 81., 100., 156.,
          155., 150., 133., 132., 131., 130., 130., 144., 149., 150.,
          150., 155., 151., 147., 153., 146., 142., 120., 137., 138.,
          131., 132., 132., 132., 132., 130., 131. ]
      - [ 139., 137., 144., 142., 146., 145., 146., 156., 149., 147.,
          144., 77., 143., 137., 146., 135., 133., 130., 125., 125.,
          134., 136., 141., 145., 145., 146., 153., 149., 149., 145.,
          143., 76., 137., 137., 136., 134., 132., 133., 130., 126.,
          145., 144., 144., 145., 146., 147., 149., 146., 157., 154.,
          152., 93., 149., 140., 138., 137., 138., 137., 132., 128.,
          148., 147., 146., 147., 146., 148., 148., 159., 157., 153.,
          153., 88., 146., 142., 141., 138., 138., 135., 134., 130.,
          146., 146., 146., 151., 147., 146., 148., 151., 156., 157.,
          152., 119., 139., 145., 135., 137., 136., 137., 138., 132.,
          148., 148., 148., 146., 147., 150., 151., 157., 152., 154.,
          148., 142., 147., 141., 142., 139., 137., 139., 135., 134.,
          144., 147., 147., 148., 147., 149., 151., 156., 158., 155.,
          149., 144., 149., 142., 141., 137., 137., 138., 138., 137.,
          145., 147., 148., 148., 149., 146., 151., 160., 172., 172.,
          168., 176., 146., 142., 141., 136., 139., 137., 139., 137.,
          147., 147., 149., 149., 149., 148., 153., 156., 172., 168.,
          166., 166., 165., 161., 138., 141., 141., 138., 137., 133.,
          145., 148., 147., 146., 150., 151., 152., 170., 170., 170.,
          168., 182., 79., 118., 136., 138., 141., 138., 137., 134.,
          147., 148., 148., 147., 148., 152., 154., 170., 171., 172.,
          171., 169., 164., 161., 137., 139., 139., 139., 136., 132.,
          146., 148., 149., 149., 150., 151., 155., 172., 170., 170.,
          169., 169., 165., 164., 134., 135., 137., 136., 136., 135.,
          146., 149., 147., 150., 150., 151., 155., 171., 169., 169.,
          44., 43., 43., 55., 164., 140., 134., 134., 137., 133., 147.,
          148., 149., 147., 151., 151., 152., 170., 171., 170., 39.,
          166., 165., 161., 160., 134., 136., 134., 136., 134., 148.,
          148., 153., 150., 151., 152., 150., 117., 185., 169., 46.,
          161., 163., 157., 158., 135., 136., 136., 134., 133., 146.,
          151., 149., 150., 151., 153., 155., 155., 156., 151., 78.,
          137., 133., 133., 128., 129., 138., 131., 135., 130., 148.,
          143., 154., 151., 155., 151., 159., 160., 155., 147., 79.,
          130., 137., 141., 139., 134., 131., 128., 131., 132., 147.,
          150., 153., 154., 153., 151., 150., 157., 147., 141., 78.,
          135., 138., 137., 137., 134., 135., 132., 133., 133., 146.,
          147., 147., 151., 153., 148., 149., 149., 137., 141., 71.,
          124., 131., 133., 131., 135., 133., 132., 135., 134., 142.,
          152., 151., 152., 148., 150., 151., 148., 146., 143., 65.,
          135., 134., 133., 133., 135., 131., 129., 129., 130. ]
      - [ 141., 139., 140., 143., 143., 147., 152., 149., 147., 147.,
          82., 137., 138., 136., 136., 136., 134., 130., 130., 124.,
          142., 142., 142., 145., 146., 149., 154., 149., 147., 146.,
          84., 142., 140., 136., 140., 137., 136., 133., 129., 127.,
          144., 143., 144., 147., 147., 150., 99., 149., 150., 98., 90.,
          85., 139., 142., 138., 136., 136., 136., 132., 129., 147.,
          146., 146., 146., 149., 149., 156., 149., 152., 156., 84.,
          145., 142., 140., 143., 137., 137., 138., 132., 129., 144.,
          147., 146., 147., 148., 147., 153., 148., 145., 149., 75.,
          139., 146., 137., 138., 138., 135., 138., 135., 133., 145.,
          145., 148., 150., 150., 158., 158., 153., 152., 155., 75.,
          136., 140., 140., 136., 138., 137., 139., 136., 137., 147.,
          146., 147., 148., 152., 155., 155., 153., 157., 153., 74.,
          137., 136., 136., 139., 137., 137., 137., 137., 137., 147.,
          148., 146., 149., 149., 149., 155., 158., 150., 149., 74.,
          137., 137., 138., 136., 142., 138., 139., 138., 136., 147.,
          147., 146., 149., 148., 152., 160., 151., 158., 151., 78.,
          144., 141., 139., 138., 135., 140., 136., 137., 135., 148.,
          148., 149., 149., 149., 151., 154., 160., 157., 153., 68.,
          140., 142., 141., 141., 139., 141., 137., 140., 136., 148.,
          147., 150., 149., 151., 151., 153., 161., 162., 144., 77.,
          144., 143., 137., 139., 140., 138., 140., 137., 135., 148.,
          147., 149., 148., 151., 156., 154., 158., 149., 149., 67.,
          137., 142., 137., 138., 135., 137., 138., 137., 134., 147.,
          146., 148., 151., 151., 152., 155., 158., 150., 148., 65.,
          131., 139., 138., 135., 135., 135., 136., 136., 139., 146.,
          148., 148., 150., 153., 154., 163., 172., 172., 168., 40.,
          165., 163., 160., 134., 139., 136., 139., 133., 133., 147.,
          147., 153., 152., 151., 153., 170., 171., 168., 167., 43.,
          163., 162., 159., 135., 139., 136., 139., 134., 135., 146.,
          148., 147., 154., 155., 154., 169., 39., 62., 56., 54., 54.,
          38., 19., 160., 135., 141., 136., 135., 135., 150., 154., 154.,
          154., 158., 154., 169., 167., 164., 164., 161., 160., 158.,
          156., 159., 137., 133., 134., 137., 134., 145., 148., 153.,
          156., 155., 157., 168., 168., 167., 163., 162., 159., 159.,
          157., 154., 135., 133., 137., 132., 131., 146., 148., 153.,
          153., 159., 154., 168., 167., 167., 164., 161., 161., 155.,
          156., 155., 131., 133., 130., 133., 135., 147., 149., 154.,
          153., 149., 151., 168., 167., 167., 162., 160., 159., 158.,
          156., 156., 130., 131., 132., 132., 132. ]
      - [ 140., 139., 143., 144., 144., 148., 147., 147., 145., 137.,
          83., 148., 143., 142., 137., 139., 133., 131., 128., 123.,
          140., 139., 144., 146., 147., 145., 25., 147., 148., 60., 93.,
          95., 143., 149., 140., 137., 136., 130., 130., 127., 144.,
          143., 144., 145., 145., 146., 147., 147., 153., 148., 133.,
          142., 149., 152., 138., 139., 136., 134., 132., 128., 142.,
          143., 147., 147., 146., 146., 147., 153., 159., 144., 140.,
          150., 144., 153., 144., 136., 137., 136., 135., 128., 147.,
          147., 146., 146., 145., 146., 148., 150., 153., 139., 138.,
          148., 155., 143., 142., 139., 139., 137., 135., 130., 147.,
          149., 148., 148., 146., 149., 146., 159., 156., 80., 147.,
          148., 142., 149., 140., 140., 137., 137., 135., 134., 146.,
          149., 144., 147., 148., 146., 146., 151., 150., 85., 151.,
          157., 153., 149., 144., 140., 138., 140., 136., 134., 145.,
          147., 148., 147., 148., 144., 150., 156., 154., 88., 140.,
          153., 151., 147., 145., 139., 138., 136., 137., 133., 147.,
          146., 147., 148., 149., 148., 149., 156., 150., 144., 149.,
          151., 144., 144., 141., 141., 141., 137., 138., 132., 143.,
          147., 148., 149., 147., 150., 149., 154., 145., 143., 147.,
          143., 143., 145., 138., 140., 142., 139., 138., 135., 146.,
          146., 148., 148., 148., 172., 171., 174., 154., 132., 151.,
          144., 143., 138., 139., 140., 141., 139., 137., 134., 145.,
          148., 145., 149., 149., 170., 169., 169., 59., 169., 166.,
          167., 146., 142., 138., 139., 135., 136., 134., 133., 145.,
          146., 150., 149., 154., 169., 67., 65., 59., 168., 167., 165.,
          145., 140., 138., 142., 137., 134., 133., 134., 143., 148.,
          151., 149., 166., 169., 168., 168., 166., 166., 168., 164.,
          141., 139., 139., 139., 135., 135., 133., 133., 148., 147.,
          151., 148., 169., 169., 171., 169., 167., 166., 167., 165.,
          140., 138., 142., 134., 138., 133., 132., 133., 143., 148.,
          151., 151., 168., 169., 170., 169., 169., 168., 167., 164.,
          142., 138., 140., 138., 135., 135., 136., 130., 142., 142.,
          147., 168., 173., 57., 33., 168., 168., 165., 166., 166., 139.,
          140., 136., 136., 137., 136., 131., 130., 147., 146., 149.,
          165., 167., 167., 164., 56., 38., 50., 52., 164., 134., 136.,
          132., 133., 133., 129., 131., 130., 146., 145., 144., 165.,
          167., 167., 166., 49., 166., 166., 164., 163., 136., 135.,
          135., 134., 134., 133., 133., 131., 146., 145., 166., 164.,
          166., 167., 166., 48., 165., 164., 161., 159., 135., 134.,
          134., 135., 131., 130., 131., 134. ]
      - [ 135., 138., 137., 145., 148., 143., 150., 146., 146., 147.,
          135., 146., 145., 80., 133., 148., 146., 133., 129., 123.,
          141., 140., 145., 147., 148., 145., 147., 146., 149., 147.,
          149., 151., 149., 134., 137., 143., 140., 138., 132., 130.,
          148., 147., 148., 147., 150., 150., 146., 146., 146., 148.,
          153., 154., 153., 89., 146., 148., 143., 143., 133., 131.,
          147., 146., 149., 149., 150., 148., 148., 148., 147., 148.,
          153., 148., 145., 138., 150., 146., 140., 146., 138., 133.,
          147., 150., 150., 150., 150., 150., 148., 148., 147., 144.,
          149., 153., 140., 140., 148., 145., 139., 140., 133., 136.,
          146., 147., 146., 147., 150., 149., 149., 148., 147., 151.,
          156., 156., 87., 149., 149., 147., 139., 141., 139., 137.,
          145., 146., 146., 147., 148., 149., 148., 149., 147., 152.,
          156., 150., 88., 147., 151., 149., 145., 146., 137., 136.,
          143., 147., 152., 145., 147., 148., 145., 149., 151., 151.,
          156., 145., 142., 144., 151., 140., 142., 141., 134., 134.,
          141., 147., 147., 148., 148., 149., 150., 147., 171., 171.,
          170., 66., 138., 145., 152., 147., 141., 138., 137., 136.,
          137., 147., 147., 147., 150., 148., 150., 148., 172., 68.,
          168., 59., 167., 165., 167., 141., 135., 137., 138., 139.,
          144., 145., 139., 150., 149., 149., 149., 170., 170., 170.,
          172., 63., 62., 164., 164., 137., 142., 140., 139., 136., 145.,
          147., 147., 147., 150., 149., 149., 169., 172., 171., 170.,
          168., 167., 164., 167., 142., 134., 138., 138., 132., 143.,
          146., 149., 147., 149., 150., 167., 165., 52., 170., 169.,
          170., 168., 166., 102., 137., 136., 134., 138., 134., 144.,
          142., 148., 150., 154., 149., 169., 170., 169., 143., 49.,
          196., 167., 168., 142., 141., 136., 135., 137., 131., 142.,
          145., 148., 151., 149., 150., 169., 170., 169., 173., 179.,
          166., 67., 166., 141., 138., 136., 136., 137., 133., 143.,
          147., 150., 149., 148., 148., 149., 119., 170., 49., 168.,
          169., 167., 166., 140., 141., 139., 137., 137., 134., 146.,
          147., 146., 149., 153., 148., 151., 150., 150., 77., 181.,
          166., 161., 162., 137., 137., 136., 135., 138., 135., 147.,
          144., 145., 149., 146., 146., 148., 139., 141., 142., 148.,
          147., 104., 148., 139., 137., 133., 134., 136., 134., 148.,
          142., 150., 150., 146., 148., 152., 144., 68., 133., 137.,
          150., 144., 140., 134., 139., 136., 132., 132., 132., 139.,
          145., 147., 149., 152., 144., 148., 146., 71., 137., 148.,
          146., 142., 144., 133., 133., 134., 132., 131., 128. ]
      - [ 137., 138., 139., 142., 144., 146., 138., 146., 142., 85., 90.,
          139., 144., 134., 136., 136., 131., 130., 128., 121., 135.,
          143., 144., 145., 144., 145., 147., 148., 149., 144., 135.,
          141., 142., 145., 137., 134., 134., 131., 129., 125., 135.,
          138., 143., 146., 146., 148., 150., 149., 153., 144., 136.,
          136., 139., 142., 135., 138., 134., 133., 129., 129., 145.,
          145., 145., 146., 146., 149., 152., 147., 145., 140., 145.,
          149., 147., 138., 141., 137., 137., 135., 132., 130., 144.,
          147., 147., 146., 147., 147., 150., 155., 151., 146., 145.,
          150., 145., 139., 137., 137., 137., 137., 134., 132., 147.,
          150., 146., 148., 143., 148., 156., 156., 154., 103., 146.,
          149., 144., 141., 140., 140., 135., 136., 136., 132., 148.,
          147., 146., 147., 147., 147., 153., 160., 154., 87., 144.,
          146., 139., 139., 139., 140., 139., 136., 135., 134., 146.,
          146., 145., 147., 150., 147., 150., 156., 150., 82., 143.,
          139., 140., 138., 138., 142., 140., 138., 136., 135., 146.,
          148., 147., 150., 148., 150., 170., 172., 169., 56., 141.,
          143., 144., 139., 136., 140., 137., 138., 135., 135., 144.,
          148., 146., 147., 150., 149., 171., 169., 170., 51., 165.,
          163., 161., 140., 140., 142., 134., 140., 135., 135., 144.,
          147., 147., 149., 148., 149., 169., 104., 35., 68., 53., 50.,
          161., 139., 139., 140., 137., 137., 136., 132., 146., 144.,
          148., 148., 150., 169., 169., 170., 170., 167., 167., 166.,
          162., 135., 137., 134., 134., 135., 132., 130., 145., 145.,
          149., 146., 147., 170., 170., 171., 170., 169., 168., 168.,
          163., 140., 141., 136., 136., 134., 136., 132., 145., 147.,
          147., 149., 151., 170., 60., 63., 71., 32., 179., 166., 164.,
          138., 136., 138., 138., 132., 135., 131., 146., 146., 151.,
          145., 152., 170., 169., 170., 111., 164., 166., 165., 164.,
          136., 139., 133., 137., 133., 136., 129., 146., 147., 150.,
          151., 172., 169., 169., 169., 53., 166., 167., 163., 161.,
          133., 135., 139., 134., 131., 133., 132., 143., 151., 148.,
          149., 126., 139., 181., 172., 47., 160., 162., 159., 154.,
          136., 136., 134., 134., 133., 133., 132., 149., 150., 149.,
          148., 149., 152., 155., 141., 72., 128., 135., 136., 136.,
          135., 135., 135., 133., 132., 132., 134., 149., 150., 152.,
          150., 151., 150., 149., 143., 71., 124., 129., 138., 137.,
          131., 132., 134., 130., 128., 131., 133., 146., 145., 146.,
          146., 148., 158., 143., 144., 70., 142., 131., 138., 134.,
          132., 129., 135., 130., 125., 130., 132. ]
      - [ 133., 135., 139., 143., 136., 150., 145., 145., 93., 57., 141.,
          143., 137., 135., 136., 134., 130., 128., 127., 118., 137.,
          140., 142., 148., 150., 150., 145., 151., 138., 136., 138.,
          136., 139., 135., 135., 134., 133., 130., 129., 120., 137.,
          141., 145., 158., 145., 147., 148., 149., 140., 136., 141.,
          141., 137., 139., 138., 136., 134., 132., 129., 127., 141.,
          142., 145., 153., 152., 148., 149., 146., 148., 138., 149.,
          141., 137., 139., 140., 140., 136., 135., 132., 122., 143.,
          145., 146., 147., 151., 154., 159., 152., 149., 147., 145.,
          139., 135., 139., 141., 135., 137., 136., 134., 129., 143.,
          144., 145., 148., 153., 149., 156., 157., 148., 140., 139.,
          145., 139., 139., 139., 136., 134., 139., 134., 132., 144.,
          147., 147., 149., 154., 159., 158., 156., 148., 134., 140.,
          138., 139., 139., 138., 140., 138., 135., 135., 133., 146.,
          146., 147., 146., 157., 157., 152., 152., 145., 141., 142.,
          136., 137., 135., 136., 137., 139., 136., 136., 132., 146.,
          146., 147., 150., 153., 156., 172., 171., 168., 59., 162.,
          163., 140., 141., 142., 138., 138., 135., 133., 134., 146.,
          146., 146., 146., 149., 156., 171., 168., 169., 48., 197., 17.,
          160., 140., 139., 142., 137., 134., 133., 132., 145., 146.,
          147., 149., 150., 154., 169., 167., 168., 166., 166., 162.,
          158., 138., 138., 138., 137., 135., 134., 131., 146., 145.,
          146., 148., 152., 162., 170., 170., 170., 166., 165., 165.,
          161., 138., 139., 135., 138., 137., 134., 131., 142., 147.,
          146., 151., 153., 169., 171., 170., 169., 168., 165., 163.,
          161., 137., 136., 134., 135., 138., 134., 132., 146., 150.,
          146., 153., 151., 169., 162., 59., 53., 37., 164., 164., 162.,
          138., 134., 138., 136., 135., 137., 133., 147., 148., 147.,
          151., 148., 170., 169., 170., 166., 36., 165., 163., 160.,
          157., 134., 137., 133., 136., 131., 132., 149., 151., 151.,
          150., 151., 168., 168., 169., 166., 46., 159., 158., 155.,
          141., 130., 136., 133., 135., 133., 133., 147., 151., 152.,
          153., 151., 123., 142., 142., 144., 75., 131., 132., 138.,
          138., 136., 132., 137., 133., 136., 129., 147., 151., 153.,
          154., 146., 154., 154., 152., 147., 80., 121., 128., 134.,
          134., 131., 133., 134., 138., 138., 133., 148., 150., 146.,
          147., 152., 156., 155., 158., 148., 75., 136., 126., 132.,
          133., 131., 134., 133., 133., 134., 132., 149., 151., 153.,
          154., 151., 150., 154., 148., 151., 69., 127., 120., 130.,
          129., 132., 131., 132., 132., 132., 129. ]
      - [ 137., 140., 141., 140., 146., 148., 153., 147., 149., 144.,
          136., 139., 134., 137., 135., 136., 132., 128., 125., 121.,
          134., 137., 144., 144., 148., 151., 156., 150., 151., 137.,
          136., 138., 137., 138., 137., 137., 134., 130., 129., 125.,
          139., 141., 143., 145., 147., 158., 156., 147., 149., 143.,
          135., 143., 135., 134., 137., 137., 133., 131., 129., 126.,
          138., 145., 147., 145., 147., 148., 152., 148., 152., 149.,
          147., 148., 134., 138., 139., 137., 137., 133., 132., 128.,
          143., 145., 146., 146., 145., 149., 151., 153., 151., 146.,
          144., 144., 145., 137., 139., 137., 137., 134., 134., 131.,
          144., 145., 145., 145., 147., 154., 156., 156., 152., 143.,
          137., 140., 138., 137., 141., 139., 136., 139., 134., 132.,
          145., 146., 146., 146., 147., 151., 158., 168., 174., 169.,
          113., 149., 136., 137., 137., 139., 136., 136., 137., 132.,
          146., 146., 146., 148., 148., 151., 159., 171., 168., 195.,
          166., 163., 160., 136., 138., 139., 135., 137., 135., 134.,
          144., 147., 145., 148., 149., 153., 166., 170., 170., 167.,
          167., 164., 161., 138., 140., 140., 137., 136., 134., 133.,
          145., 146., 146., 147., 147., 155., 170., 170., 171., 168.,
          168., 165., 160., 138., 139., 139., 139., 133., 135., 132.,
          148., 147., 150., 148., 152., 152., 170., 167., 170., 170.,
          167., 162., 161., 136., 137., 138., 142., 136., 129., 129.,
          147., 146., 149., 149., 148., 153., 169., 169., 169., 40.,
          166., 164., 162., 119., 136., 137., 134., 133., 134., 132.,
          147., 147., 148., 150., 154., 150., 170., 170., 170., 52.,
          168., 163., 159., 159., 137., 135., 133., 132., 133., 132.,
          145., 147., 151., 152., 151., 150., 151., 146., 132., 62.,
          120., 128., 128., 132., 139., 135., 132., 134., 132., 131.,
          143., 151., 151., 148., 150., 146., 151., 161., 144., 80.,
          128., 134., 141., 138., 136., 137., 133., 132., 132., 133.,
          147., 150., 150., 149., 152., 158., 153., 155., 150., 85.,
          132., 133., 140., 135., 135., 137., 131., 131., 131., 132.,
          143., 147., 149., 146., 147., 158., 151., 155., 150., 77.,
          116., 133., 133., 135., 137., 135., 132., 132., 130., 133.,
          145., 149., 146., 146., 151., 154., 151., 152., 145., 73.,
          127., 137., 133., 132., 131., 130., 131., 132., 132., 131.,
          145., 150., 149., 148., 151., 155., 151., 149., 156., 70.,
          134., 137., 132., 135., 135., 131., 129., 131., 129., 129.,
          145., 149., 150., 150., 146., 149., 153., 147., 142., 67.,
          117., 125., 128., 129., 131., 133., 131., 128., 131., 131. ]
      - [ 140., 143., 143., 144., 145., 145., 150., 151., 148., 150.,
          141., 128., 143., 136., 139., 135., 132., 130., 128., 121.,
          144., 142., 144., 145., 146., 146., 150., 153., 148., 149.,
          143., 132., 147., 135., 137., 136., 133., 133., 129., 126.,
          145., 146., 144., 145., 146., 145., 120., 153., 149., 152.,
          100., 80., 142., 139., 139., 137., 137., 136., 134., 131.,
          149., 145., 147., 147., 146., 148., 152., 155., 154., 154.,
          141., 137., 143., 141., 143., 140., 138., 137., 134., 130.,
          145., 148., 148., 146., 149., 149., 154., 148., 147., 150.,
          141., 141., 144., 141., 141., 137., 135., 137., 137., 134.,
          146., 146., 147., 147., 150., 156., 154., 159., 153., 154.,
          144., 141., 144., 140., 137., 140., 140., 139., 137., 134.,
          147., 148., 147., 147., 148., 150., 151., 156., 151., 152.,
          87., 133., 143., 140., 134., 139., 140., 141., 136., 137.,
          148., 148., 146., 149., 149., 149., 153., 156., 155., 149.,
          74., 138., 139., 139., 137., 141., 140., 140., 136., 136.,
          147., 145., 148., 149., 148., 153., 152., 153., 153., 148.,
          83., 146., 139., 138., 135., 134., 136., 142., 136., 136.,
          146., 148., 149., 148., 146., 148., 152., 160., 159., 153.,
          69., 141., 141., 139., 139., 139., 140., 138., 135., 135.,
          147., 146., 150., 148., 151., 149., 151., 163., 158., 147.,
          77., 141., 144., 141., 140., 140., 137., 138., 138., 137.,
          147., 148., 147., 149., 151., 154., 151., 156., 156., 151.,
          69., 137., 141., 136., 137., 137., 134., 137., 136., 135.,
          147., 146., 150., 151., 151., 152., 155., 153., 157., 151.,
          67., 135., 139., 134., 137., 139., 134., 135., 139., 136.,
          146., 145., 147., 148., 151., 152., 169., 172., 171., 169.,
          45., 170., 146., 141., 138., 136., 135., 134., 135., 134.,
          146., 149., 154., 150., 152., 154., 170., 172., 169., 168.,
          41., 164., 162., 159., 137., 138., 138., 135., 133., 132.,
          148., 152., 148., 151., 158., 155., 169., 170., 165., 165.,
          43., 161., 161., 158., 131., 138., 137., 132., 135., 133.,
          145., 146., 151., 155., 158., 154., 168., 159., 91., 38., 53.,
          49., 45., 43., 159., 132., 136., 135., 137., 134., 148., 150.,
          153., 156., 152., 157., 167., 167., 166., 163., 163., 159.,
          159., 158., 154., 135., 133., 134., 134., 136., 148., 154.,
          155., 155., 151., 167., 168., 168., 167., 164., 161., 160.,
          156., 154., 154., 132., 132., 131., 136., 134., 144., 150.,
          151., 151., 150., 164., 168., 167., 166., 163., 161., 157.,
          155., 154., 154., 136., 130., 129., 130., 137. ]
      - [ 140., 143., 141., 144., 143., 145., 148., 148., 148., 152.,
          143., 138., 143., 138., 137., 140., 133., 131., 128., 124.,
          148., 148., 145., 146., 146., 146., 151., 152., 148., 149.,
          145., 129., 143., 138., 141., 136., 136., 132., 130., 128.,
          147., 148., 146., 146., 146., 148., 150., 154., 147., 150.,
          141., 131., 146., 138., 143., 137., 137., 135., 131., 129.,
          144., 146., 147., 149., 148., 147., 153., 153., 142., 155.,
          147., 136., 146., 141., 138., 139., 139., 139., 134., 130.,
          147., 146., 145., 147., 149., 150., 162., 153., 151., 152.,
          145., 144., 140., 142., 146., 137., 138., 137., 137., 131.,
          148., 149., 147., 149., 148., 150., 157., 154., 151., 153.,
          149., 133., 141., 140., 139., 141., 140., 138., 137., 134.,
          151., 150., 145., 149., 153., 150., 155., 150., 151., 152.,
          144., 135., 149., 141., 136., 141., 140., 135., 139., 138.,
          143., 147., 147., 146., 153., 154., 153., 159., 161., 160.,
          136., 133., 147., 140., 136., 142., 142., 137., 139., 137.,
          141., 147., 148., 149., 150., 151., 149., 154., 158., 152.,
          135., 137., 138., 141., 139., 136., 138., 141., 142., 134.,
          149., 151., 149., 148., 152., 151., 156., 159., 150., 152.,
          139., 138., 141., 140., 135., 138., 138., 137., 135., 136.,
          149., 146., 149., 150., 150., 152., 152., 159., 154., 150.,
          69., 143., 139., 142., 137., 139., 139., 139., 137., 134.,
          147., 150., 149., 152., 148., 152., 145., 160., 161., 154.,
          70., 141., 140., 139., 134., 135., 136., 137., 138., 137.,
          146., 149., 148., 151., 154., 150., 157., 158., 155., 149.,
          66., 150., 139., 141., 140., 139., 138., 141., 140., 135.,
          147., 150., 149., 149., 154., 148., 158., 159., 159., 149.,
          58., 141., 142., 142., 140., 139., 142., 136., 135., 136.,
          149., 147., 148., 154., 154., 153., 161., 158., 158., 152.,
          66., 145., 143., 137., 138., 138., 140., 137., 137., 134.,
          144., 149., 150., 152., 154., 152., 154., 159., 155., 143.,
          70., 138., 142., 138., 137., 138., 133., 133., 139., 136.,
          142., 150., 150., 154., 152., 153., 155., 157., 154., 150.,
          75., 134., 136., 137., 140., 138., 133., 135., 135., 134.,
          149., 149., 154., 153., 156., 154., 159., 155., 152., 140.,
          70., 121., 141., 132., 136., 134., 127., 131., 136., 134.,
          154., 148., 149., 152., 151., 155., 158., 158., 151., 145.,
          84., 136., 160., 153., 136., 136., 132., 132., 132., 134.,
          149., 152., 153., 152., 151., 167., 167., 167., 164., 48.,
          157., 159., 159., 154., 129., 133., 130., 135., 134., 134. ]
      - [ 134., 137., 142., 145., 148., 151., 142., 150., 73., 137.,
          140., 136., 136., 137., 135., 136., 134., 131., 126., 120.,
          137., 140., 143., 149., 153., 149., 146., 147., 141., 133.,
          138., 142., 138., 139., 136., 137., 136., 134., 131., 121.,
          138., 143., 146., 146., 70., 150., 151., 156., 135., 137.,
          138., 139., 143., 137., 139., 137., 136., 133., 131., 127.,
          140., 144., 147., 149., 158., 151., 152., 155., 148., 130.,
          141., 141., 141., 138., 136., 139., 137., 137., 133., 129.,
          140., 144., 145., 146., 149., 152., 151., 158., 144., 133.,
          142., 136., 139., 140., 140., 143., 137., 136., 132., 131.,
          143., 147., 151., 152., 159., 159., 152., 154., 150., 129.,
          144., 139., 139., 133., 138., 140., 141., 137., 135., 133.,
          145., 147., 148., 151., 160., 161., 153., 151., 149., 79.,
          137., 141., 138., 137., 142., 141., 137., 137., 136., 132.,
          146., 146., 149., 151., 156., 156., 160., 150., 147., 82.,
          137., 142., 138., 134., 139., 140., 136., 137., 137., 134.,
          147., 148., 150., 151., 159., 155., 159., 152., 149., 71.,
          134., 141., 142., 139., 139., 140., 141., 138., 138., 134.,
          146., 148., 149., 147., 150., 154., 163., 155., 147., 68.,
          137., 139., 139., 140., 137., 140., 138., 138., 140., 135.,
          147., 147., 149., 150., 155., 155., 159., 156., 148., 142.,
          133., 141., 140., 139., 142., 138., 138., 138., 137., 136.,
          147., 146., 147., 149., 156., 157., 156., 154., 147., 142.,
          139., 136., 136., 137., 139., 136., 139., 135., 138., 136.,
          147., 148., 150., 154., 152., 158., 160., 150., 143., 28.,
          161., 162., 161., 142., 136., 139., 137., 139., 139., 137.,
          148., 148., 150., 156., 160., 158., 172., 172., 170., 40.,
          163., 162., 161., 158., 135., 136., 138., 136., 139., 134.,
          147., 145., 153., 153., 153., 159., 172., 169., 167., 164.,
          42., 38., 39., 159., 137., 136., 137., 136., 136., 137., 148.,
          147., 147., 154., 158., 161., 171., 59., 51., 132., 160., 159.,
          159., 158., 132., 132., 140., 135., 139., 138., 149., 148.,
          152., 155., 162., 156., 166., 165., 165., 162., 160., 158.,
          157., 157., 155., 135., 138., 138., 134., 134., 149., 150.,
          149., 155., 154., 159., 168., 167., 166., 165., 159., 157.,
          157., 158., 157., 132., 137., 137., 133., 134., 146., 149.,
          149., 156., 154., 155., 167., 166., 165., 164., 160., 159.,
          157., 156., 155., 131., 136., 137., 136., 135., 150., 153.,
          150., 152., 154., 153., 165., 164., 162., 157., 33., 37., 37.,
          36., 156., 154., 134., 133., 136., 131. ]
      - [ 138., 138., 142., 144., 148., 149., 149., 144., 145., 139.,
          135., 146., 143., 141., 140., 140., 136., 133., 130., 122.,
          142., 144., 144., 145., 147., 150., 150., 148., 81., 138.,
          142., 150., 141., 140., 142., 139., 138., 137., 132., 115.,
          145., 145., 146., 147., 149., 151., 148., 149., 153., 147.,
          142., 150., 140., 142., 142., 141., 139., 135., 133., 131.,
          147., 147., 146., 147., 150., 155., 152., 151., 152., 88.,
          141., 145., 143., 143., 144., 142., 140., 141., 135., 134.,
          146., 147., 145., 150., 155., 156., 156., 158., 151., 72.,
          145., 156., 140., 145., 142., 143., 144., 141., 139., 136.,
          147., 149., 149., 151., 153., 155., 154., 153., 154., 147.,
          143., 153., 146., 144., 145., 143., 142., 137., 140., 138.,
          151., 149., 150., 149., 153., 162., 158., 157., 155., 133.,
          141., 152., 145., 145., 146., 145., 142., 142., 141., 140.,
          148., 152., 149., 152., 153., 157., 158., 154., 154., 94.,
          134., 150., 143., 144., 146., 145., 142., 143., 144., 141.,
          154., 152., 149., 152., 153., 162., 162., 160., 154., 77.,
          134., 148., 142., 143., 145., 144., 144., 144., 142., 140.,
          150., 149., 149., 151., 152., 157., 162., 167., 158., 69.,
          134., 150., 145., 142., 145., 145., 142., 145., 144., 139.,
          149., 151., 155., 152., 158., 157., 163., 160., 159., 83.,
          136., 148., 145., 141., 145., 145., 148., 143., 142., 140.,
          151., 152., 154., 153., 156., 155., 162., 162., 155., 78.,
          135., 150., 143., 144., 141., 146., 143., 146., 144., 142.,
          150., 152., 153., 154., 156., 153., 160., 158., 161., 80.,
          135., 148., 143., 142., 142., 145., 143., 146., 142., 144.,
          152., 148., 155., 154., 153., 155., 158., 160., 154., 67.,
          139., 143., 146., 145., 143., 144., 144., 144., 143., 143.,
          151., 148., 154., 156., 157., 152., 161., 160., 152., 62.,
          134., 139., 144., 145., 146., 147., 140., 143., 143., 145.,
          150., 150., 153., 155., 156., 156., 162., 166., 84., 80., 58.,
          63., 143., 144., 147., 147., 143., 142., 143., 135., 154., 99.,
          156., 155., 156., 157., 164., 157., 146., 79., 123., 144.,
          140., 141., 139., 143., 140., 141., 141., 142., 149., 155.,
          66., 155., 155., 159., 163., 160., 152., 60., 119., 146., 138.,
          139., 144., 146., 143., 144., 140., 142., 147., 153., 158.,
          152., 151., 155., 163., 160., 147., 65., 105., 144., 142.,
          144., 139., 142., 143., 141., 136., 140., 151., 154., 152.,
          154., 155., 158., 159., 154., 151., 58., 142., 141., 143.,
          138., 138., 137., 140., 141., 138., 139. ]
      - [ 139., 140., 144., 144., 148., 150., 148., 144., 145., 141.,
          137., 144., 143., 142., 140., 141., 135., 132., 130., 124.,
          145., 145., 144., 146., 149., 151., 150., 147., 80., 137.,
          142., 149., 143., 141., 142., 139., 138., 136., 131., 124.,
          146., 146., 147., 148., 149., 152., 149., 150., 154., 146.,
          141., 152., 141., 140., 141., 140., 140., 135., 132., 132.,
          147., 147., 146., 148., 152., 155., 152., 151., 155., 88.,
          142., 143., 142., 143., 144., 142., 141., 140., 134., 133.,
          147., 145., 145., 150., 154., 157., 157., 157., 151., 80.,
          147., 153., 143., 144., 141., 142., 144., 139., 137., 136.,
          147., 147., 150., 151., 153., 155., 155., 152., 155., 147.,
          140., 150., 146., 145., 145., 143., 143., 139., 139., 137.,
          150., 148., 149., 148., 151., 162., 160., 158., 154., 125.,
          141., 150., 145., 148., 147., 146., 144., 142., 141., 139.,
          149., 151., 149., 151., 153., 155., 161., 155., 155., 96.,
          134., 152., 143., 145., 145., 143., 142., 143., 143., 139.,
          154., 151., 148., 151., 154., 160., 161., 159., 154., 73.,
          132., 148., 142., 144., 145., 144., 144., 143., 142., 138.,
          151., 149., 149., 152., 154., 156., 161., 166., 156., 68.,
          133., 150., 146., 140., 146., 144., 143., 145., 143., 139.,
          148., 149., 153., 151., 156., 155., 162., 159., 158., 84.,
          135., 148., 144., 142., 145., 145., 148., 143., 137., 140.,
          150., 151., 153., 152., 153., 153., 160., 161., 156., 81.,
          134., 151., 142., 142., 143., 145., 142., 146., 142., 141.,
          150., 151., 151., 154., 156., 153., 160., 160., 157., 78.,
          135., 147., 142., 141., 144., 144., 143., 144., 143., 143.,
          151., 148., 157., 153., 151., 155., 158., 160., 156., 66.,
          136., 140., 145., 144., 143., 143., 145., 142., 141., 143.,
          148., 148., 155., 154., 156., 152., 160., 158., 151., 60.,
          131., 138., 144., 145., 146., 147., 140., 142., 141., 145.,
          151., 148., 155., 155., 156., 156., 160., 163., 87., 77., 60.,
          64., 142., 142., 147., 146., 142., 143., 143., 136., 150.,
          103., 159., 159., 156., 157., 161., 156., 146., 78., 128.,
          136., 138., 143., 138., 142., 140., 140., 140., 144., 150.,
          147., 65., 156., 155., 158., 160., 160., 150., 60., 124., 143.,
          138., 138., 145., 144., 143., 143., 140., 143., 151., 154.,
          157., 150., 151., 155., 157., 158., 145., 66., 109., 142.,
          138., 143., 139., 144., 140., 140., 135., 139., 150., 154.,
          151., 154., 155., 155., 162., 155., 150., 59., 144., 142.,
          139., 139., 137., 136., 139., 139., 139., 138. ]
      - [ 136., 141., 143., 145., 70., 144., 144., 142., 133., 144.,
          141., 143., 141., 139., 139., 137., 133., 132., 128., 125.,
          139., 142., 147., 150., 147., 147., 64., 138., 140., 146.,
          140., 145., 144., 142., 140., 137., 135., 134., 130., 130.,
          141., 146., 147., 151., 151., 148., 156., 144., 138., 143.,
          142., 146., 143., 143., 143., 140., 139., 139., 133., 130.,
          144., 148., 151., 154., 151., 150., 152., 149., 135., 141.,
          143., 147., 144., 142., 144., 140., 139., 139., 137., 134.,
          145., 149., 145., 153., 151., 151., 158., 150., 91., 146.,
          146., 145., 146., 146., 145., 144., 144., 139., 137., 136.,
          147., 152., 153., 159., 158., 154., 157., 151., 83., 154.,
          147., 145., 148., 144., 147., 144., 142., 143., 139., 138.,
          150., 150., 152., 161., 156., 161., 158., 152., 74., 145.,
          146., 147., 146., 146., 147., 145., 145., 143., 140., 141.,
          150., 152., 154., 156., 153., 158., 156., 154., 78., 139.,
          150., 139., 145., 146., 146., 147., 145., 143., 143., 140.,
          152., 152., 153., 154., 162., 163., 156., 158., 84., 136.,
          146., 141., 145., 147., 146., 145., 144., 144., 140., 141.,
          152., 153., 155., 154., 161., 161., 160., 151., 150., 131.,
          145., 141., 145., 146., 145., 146., 144., 143., 145., 139.,
          151., 153., 153., 158., 165., 162., 165., 158., 147., 133.,
          146., 146., 143., 144., 147., 145., 145., 143., 142., 144.,
          149., 154., 152., 154., 154., 160., 163., 161., 148., 129.,
          130., 149., 143., 144., 146., 146., 145., 142., 143., 140.,
          150., 153., 154., 157., 155., 161., 160., 155., 148., 117.,
          141., 149., 148., 134., 145., 145., 147., 145., 143., 142.,
          154., 154., 155., 154., 157., 159., 157., 152., 150., 59.,
          138., 140., 137., 145., 144., 142., 142., 144., 143., 143.,
          151., 152., 154., 153., 158., 157., 159., 156., 155., 66.,
          139., 139., 145., 141., 145., 146., 142., 144., 144., 144.,
          151., 155., 156., 157., 153., 154., 157., 151., 85., 63., 60.,
          65., 144., 139., 145., 146., 143., 142., 143., 144., 150.,
          158., 156., 156., 159., 157., 159., 75., 76., 66., 131., 142.,
          141., 140., 137., 143., 142., 143., 143., 142., 144., 171.,
          143., 154., 156., 156., 164., 156., 151., 63., 132., 147.,
          142., 144., 140., 143., 148., 145., 141., 140., 149., 71.,
          153., 155., 157., 157., 158., 161., 151., 50., 129., 142.,
          141., 140., 135., 134., 143., 143., 140., 145., 150., 150.,
          156., 154., 154., 157., 157., 157., 150., 152., 105., 137.,
          139., 142., 141., 137., 144., 139., 139., 139. ]
      - [ 138., 141., 146., 151., 149., 157., 156., 155., 153., 149.,
          148., 151., 149., 149., 72., 145., 137., 115., 132., 127.,
          145., 151., 149., 148., 150., 155., 157., 153., 154., 151.,
          149., 151., 151., 151., 147., 142., 139., 132., 134., 131.,
          144., 154., 157., 157., 154., 157., 157., 146., 151., 150.,
          152., 152., 152., 151., 148., 93., 85., 137., 145., 138., 148.,
          152., 158., 156., 157., 158., 159., 157., 156., 153., 156.,
          155., 152., 150., 151., 144., 77., 140., 148., 134., 150.,
          155., 158., 154., 155., 155., 155., 154., 152., 154., 154.,
          153., 153., 159., 152., 142., 134., 136., 144., 140., 150.,
          157., 157., 156., 156., 156., 160., 153., 153., 154., 154.,
          158., 155., 151., 152., 88., 145., 150., 140., 145., 153.,
          152., 153., 155., 152., 155., 155., 152., 154., 154., 155.,
          154., 156., 156., 148., 87., 139., 152., 141., 143., 152.,
          154., 151., 154., 154., 141., 154., 151., 154., 153., 156.,
          163., 156., 156., 144., 139., 150., 148., 144., 142., 154.,
          151., 154., 154., 154., 153., 154., 153., 154., 157., 158.,
          163., 162., 157., 87., 148., 150., 147., 142., 142., 150.,
          150., 150., 153., 152., 154., 153., 157., 150., 155., 159.,
          160., 157., 154., 79., 136., 152., 144., 143., 145., 148.,
          150., 153., 153., 152., 151., 155., 157., 155., 156., 158.,
          155., 159., 154., 137., 147., 151., 142., 143., 135., 150.,
          151., 151., 154., 153., 155., 154., 155., 156., 155., 160.,
          157., 160., 90., 135., 144., 145., 145., 141., 143., 153.,
          154., 154., 153., 153., 122., 155., 154., 157., 130., 160.,
          157., 157., 67., 139., 153., 145., 143., 139., 137., 149.,
          153., 151., 156., 155., 155., 155., 158., 157., 161., 160.,
          148., 143., 129., 141., 149., 144., 135., 142., 143., 149.,
          151., 152., 150., 156., 157., 159., 159., 159., 161., 161.,
          100., 87., 135., 143., 145., 143., 143., 141., 139., 151.,
          152., 151., 152., 156., 157., 157., 156., 162., 162., 163.,
          156., 66., 69., 62., 145., 142., 142., 142., 140., 151., 155.,
          153., 155., 154., 156., 152., 158., 160., 159., 163., 141.,
          117., 134., 64., 145., 147., 142., 143., 138., 150., 156.,
          147., 155., 156., 159., 157., 155., 151., 157., 149., 69.,
          136., 139., 142., 144., 138., 144., 140., 139., 145., 155.,
          148., 160., 154., 155., 154., 157., 158., 153., 150., 61.,
          134., 152., 142., 139., 138., 144., 148., 137., 147., 152.,
          154., 147., 154., 150., 156., 161., 157., 160., 145., 58.,
          132., 139., 145., 145., 138., 139., 143., 137. ]
      - [ 133., 138., 145., 144., 72., 145., 145., 142., 137., 144.,
          142., 144., 144., 140., 141., 139., 136., 133., 129., 126.,
          141., 141., 143., 148., 148., 148., 71., 146., 134., 145.,
          144., 141., 144., 142., 140., 139., 133., 125., 132., 131.,
          141., 143., 146., 147., 150., 150., 148., 146., 138., 148.,
          141., 146., 143., 143., 140., 141., 137., 137., 134., 132.,
          145., 145., 149., 151., 150., 149., 149., 131., 144., 143.,
          151., 146., 145., 145., 140., 137., 139., 141., 136., 133.,
          142., 150., 148., 73., 151., 149., 149., 145., 137., 141.,
          148., 147., 142., 140., 140., 140., 140., 138., 139., 135.,
          146., 148., 152., 154., 152., 154., 153., 141., 114., 150.,
          149., 144., 146., 147., 147., 145., 143., 135., 139., 139.,
          147., 151., 153., 150., 154., 151., 153., 140., 106., 153.,
          151., 147., 147., 145., 147., 144., 143., 141., 141., 138.,
          149., 151., 150., 151., 157., 158., 149., 152., 93., 152.,
          153., 145., 144., 146., 146., 145., 143., 144., 143., 142.,
          152., 151., 150., 153., 153., 158., 158., 152., 85., 145.,
          150., 143., 144., 148., 144., 142., 144., 144., 145., 144.,
          149., 153., 153., 155., 154., 163., 158., 148., 80., 140.,
          154., 144., 143., 147., 141., 146., 145., 143., 142., 140.,
          152., 150., 152., 152., 157., 159., 158., 152., 74., 138.,
          151., 146., 147., 147., 143., 143., 144., 143., 141., 141.,
          150., 153., 154., 156., 157., 154., 153., 148., 70., 139.,
          151., 144., 145., 146., 145., 146., 145., 143., 146., 141.,
          151., 150., 153., 155., 151., 160., 158., 150., 67., 140.,
          153., 147., 143., 145., 146., 142., 141., 144., 143., 143.,
          151., 153., 153., 152., 156., 158., 156., 156., 72., 147.,
          147., 145., 145., 145., 144., 144., 144., 142., 145., 139.,
          151., 154., 154., 153., 157., 157., 150., 157., 67., 137.,
          147., 144., 146., 145., 142., 144., 142., 144., 145., 144.,
          150., 153., 153., 152., 155., 160., 153., 149., 71., 136.,
          143., 144., 144., 145., 144., 146., 142., 144., 144., 143.,
          154., 150., 153., 148., 155., 163., 163., 101., 64., 60., 96.,
          142., 138., 147., 143., 143., 144., 143., 142., 146., 151.,
          157., 154., 158., 159., 159., 101., 97., 64., 59., 61., 143.,
          145., 143., 148., 144., 146., 142., 142., 142., 144., 152.,
          153., 152., 159., 161., 156., 158., 61., 121., 148., 141.,
          140., 138., 141., 140., 141., 140., 143., 145., 148., 155.,
          144., 152., 153., 155., 155., 142., 63., 147., 141., 139.,
          141., 142., 145., 144., 143., 141., 142., 139. ]
      - [ 141., 141., 145., 145., 146., 149., 147., 72., 149., 145.,
          145., 129., 135., 137., 139., 138., 135., 135., 132., 127.,
          143., 144., 145., 148., 148., 147., 150., 148., 150., 147.,
          146., 130., 140., 141., 138., 143., 138., 136., 133., 131.,
          147., 151., 150., 149., 148., 150., 150., 151., 152., 150.,
          139., 131., 138., 143., 144., 138., 141., 141., 134., 133.,
          148., 147., 151., 151., 151., 152., 154., 151., 152., 154.,
          100., 115., 142., 145., 145., 144., 143., 140., 137., 135.,
          149., 149., 148., 149., 149., 149., 82., 154., 152., 154.,
          144., 73., 138., 146., 145., 143., 140., 140., 140., 140.,
          150., 147., 149., 152., 156., 157., 163., 157., 159., 153.,
          152., 67., 139., 144., 141., 144., 142., 142., 142., 138.,
          152., 150., 153., 154., 154., 157., 160., 157., 156., 156.,
          154., 73., 138., 143., 142., 142., 144., 142., 142., 138.,
          152., 150., 153., 153., 154., 159., 161., 161., 159., 158.,
          156., 60., 136., 140., 145., 146., 147., 144., 142., 141.,
          154., 150., 151., 154., 152., 160., 164., 164., 155., 159.,
          155., 68., 135., 141., 145., 145., 145., 143., 144., 141.,
          151., 151., 153., 153., 157., 157., 163., 161., 160., 156.,
          156., 56., 129., 140., 143., 142., 143., 144., 141., 143.,
          152., 151., 152., 155., 158., 156., 164., 167., 162., 160.,
          154., 113., 134., 141., 142., 143., 141., 145., 141., 142.,
          152., 153., 152., 152., 157., 162., 167., 164., 160., 155.,
          156., 138., 131., 138., 142., 138., 141., 142., 143., 142.,
          152., 154., 155., 151., 160., 161., 164., 165., 155., 155.,
          153., 139., 127., 140., 144., 142., 141., 145., 144., 141.,
          151., 151., 155., 157., 156., 156., 163., 159., 158., 155.,
          152., 139., 126., 140., 145., 139., 144., 142., 144., 142.,
          151., 154., 152., 155., 160., 159., 163., 158., 156., 156.,
          147., 148., 135., 138., 144., 146., 142., 137., 144., 140.,
          152., 154., 157., 158., 161., 159., 162., 143., 158., 157.,
          150., 145., 130., 138., 139., 139., 142., 141., 140., 141.,
          150., 151., 139., 152., 159., 159., 162., 157., 162., 153.,
          148., 143., 75., 134., 135., 139., 139., 140., 141., 140.,
          152., 155., 155., 154., 160., 162., 160., 160., 160., 151.,
          78., 69., 48., 54., 56., 140., 137., 143., 138., 141., 151.,
          155., 154., 78., 157., 160., 159., 159., 159., 151., 158.,
          112., 47., 80., 133., 141., 141., 136., 141., 138., 152., 151.,
          158., 154., 84., 158., 155., 155., 155., 154., 153., 143., 50.,
          117., 135., 137., 137., 137., 140., 142. ]
      - [ 145., 147., 150., 147., 148., 148., 147., 150., 144., 147.,
          143., 137., 144., 143., 144., 143., 139., 138., 133., 126.,
          146., 152., 152., 149., 147., 148., 150., 150., 149., 143.,
          143., 141., 151., 149., 148., 144., 142., 139., 137., 133.,
          152., 152., 156., 153., 150., 150., 151., 152., 148., 150.,
          85., 145., 153., 147., 148., 145., 141., 142., 139., 132.,
          149., 151., 154., 150., 151., 156., 151., 153., 152., 147.,
          79., 145., 154., 148., 146., 145., 141., 143., 137., 135.,
          148., 148., 149., 150., 150., 151., 155., 156., 157., 152.,
          79., 145., 148., 154., 145., 145., 145., 144., 142., 136.,
          155., 160., 154., 150., 154., 151., 161., 156., 159., 149.,
          143., 152., 157., 151., 150., 147., 143., 144., 144., 140.,
          154., 154., 154., 153., 153., 157., 155., 154., 153., 153.,
          143., 150., 156., 146., 147., 145., 148., 146., 141., 135.,
          153., 152., 151., 155., 155., 155., 155., 159., 155., 142.,
          140., 155., 158., 147., 149., 147., 146., 143., 141., 141.,
          148., 153., 155., 152., 154., 153., 154., 158., 155., 84.,
          147., 157., 156., 148., 149., 145., 147., 145., 144., 142.,
          151., 152., 154., 155., 150., 154., 155., 157., 155., 84.,
          145., 156., 150., 145., 151., 145., 145., 146., 143., 142.,
          152., 154., 150., 154., 155., 155., 157., 153., 148., 84.,
          143., 154., 148., 148., 145., 147., 147., 145., 144., 142.,
          152., 154., 154., 153., 155., 153., 156., 153., 154., 138.,
          147., 153., 151., 148., 143., 145., 143., 141., 143., 141.,
          150., 153., 154., 154., 155., 155., 156., 153., 145., 135.,
          153., 153., 151., 143., 144., 147., 146., 142., 139., 143.,
          151., 154., 154., 152., 153., 155., 155., 153., 84., 135.,
          150., 152., 147., 148., 146., 147., 145., 143., 142., 145.,
          152., 154., 155., 154., 154., 153., 156., 157., 69., 141.,
          149., 154., 145., 150., 146., 147., 148., 141., 141., 142.,
          68., 65., 152., 154., 150., 155., 135., 88., 78., 141., 149.,
          147., 148., 150., 146., 144., 141., 146., 143., 140., 63.,
          153., 155., 155., 158., 161., 93., 94., 73., 67., 78., 147.,
          147., 151., 148., 145., 141., 145., 142., 138., 153., 155.,
          152., 153., 158., 156., 156., 152., 113., 137., 140., 145.,
          145., 147., 148., 145., 142., 144., 144., 143., 151., 154.,
          154., 157., 159., 157., 152., 161., 118., 147., 152., 144.,
          144., 146., 152., 142., 141., 140., 143., 141., 152., 152.,
          151., 151., 158., 157., 154., 76., 144., 145., 142., 147.,
          146., 143., 148., 144., 143., 136., 139., 139. ]
      - [ 142., 142., 144., 148., 151., 158., 147., 145., 147., 139.,
          137., 144., 143., 143., 144., 141., 139., 135., 130., 126.,
          145., 146., 147., 148., 150., 151., 155., 148., 145., 67.,
          139., 148., 145., 145., 145., 142., 141., 138., 135., 130.,
          148., 148., 147., 149., 151., 152., 150., 154., 146., 79.,
          143., 153., 146., 147., 146., 143., 141., 141., 137., 134.,
          142., 151., 150., 151., 152., 154., 152., 151., 88., 72., 145.,
          154., 144., 146., 145., 144., 142., 140., 137., 132., 149.,
          152., 150., 152., 154., 154., 156., 152., 151., 85., 144.,
          151., 142., 150., 144., 143., 144., 141., 138., 135., 153.,
          150., 153., 78., 151., 152., 154., 152., 148., 86., 147., 144.,
          150., 149., 147., 145., 144., 144., 141., 137., 149., 152.,
          153., 153., 155., 153., 153., 160., 150., 89., 151., 154.,
          145., 148., 147., 147., 146., 145., 141., 140., 154., 154.,
          153., 151., 153., 156., 158., 158., 148., 73., 149., 155.,
          145., 145., 147., 146., 148., 145., 142., 140., 153., 154.,
          156., 154., 156., 161., 152., 154., 153., 91., 151., 152.,
          147., 149., 146., 149., 145., 142., 144., 141., 153., 157.,
          154., 154., 156., 162., 162., 158., 150., 144., 145., 151.,
          149., 143., 145., 147., 146., 143., 142., 142., 151., 155.,
          155., 154., 151., 157., 156., 159., 154., 142., 143., 153.,
          144., 146., 147., 146., 146., 144., 142., 141., 151., 158.,
          156., 155., 156., 157., 161., 154., 151., 142., 137., 151.,
          147., 144., 149., 148., 146., 144., 146., 144., 150., 156.,
          158., 158., 156., 159., 159., 152., 158., 128., 144., 150.,
          148., 147., 144., 148., 145., 146., 144., 144., 153., 149.,
          156., 156., 156., 159., 157., 151., 148., 126., 148., 150.,
          145., 148., 148., 144., 146., 141., 145., 146., 155., 153.,
          155., 156., 156., 162., 160., 157., 146., 141., 144., 150.,
          146., 140., 150., 148., 145., 143., 144., 142., 155., 155.,
          158., 155., 159., 160., 160., 156., 155., 141., 150., 154.,
          144., 144., 144., 143., 146., 144., 145., 141., 152., 154.,
          157., 156., 155., 163., 162., 153., 88., 132., 148., 149.,
          146., 146., 145., 144., 142., 141., 142., 143., 156., 156.,
          154., 156., 156., 161., 162., 157., 77., 146., 146., 146.,
          140., 145., 140., 140., 141., 144., 142., 142., 152., 154.,
          156., 152., 157., 161., 159., 149., 73., 152., 139., 142.,
          140., 146., 146., 141., 138., 139., 143., 143., 154., 155.,
          157., 159., 161., 159., 84., 86., 76., 64., 59., 145., 142.,
          140., 140., 142., 139., 140., 143., 137. ]
      - [ 142., 145., 150., 147., 149., 148., 147., 149., 150., 149.,
          152., 147., 140., 139., 141., 138., 136., 137., 130., 129.,
          146., 150., 152., 151., 151., 148., 148., 153., 153., 153.,
          153., 150., 125., 144., 137., 137., 141., 137., 135., 134.,
          143., 146., 148., 149., 150., 151., 150., 158., 151., 154.,
          137., 151., 146., 127., 139., 139., 140., 140., 139., 133.,
          154., 155., 156., 154., 151., 154., 154., 157., 156., 157.,
          162., 156., 148., 136., 141., 142., 142., 142., 140., 138.,
          156., 159., 152., 154., 152., 155., 154., 159., 158., 156.,
          159., 159., 155., 119., 142., 146., 143., 144., 140., 140.,
          156., 153., 154., 150., 153., 155., 157., 159., 163., 158.,
          160., 155., 157., 104., 143., 145., 141., 142., 142., 141.,
          154., 159., 156., 153., 154., 155., 158., 160., 161., 160.,
          158., 159., 152., 77., 144., 144., 141., 142., 142., 142.,
          155., 156., 154., 156., 154., 156., 159., 166., 163., 163.,
          160., 155., 151., 79., 133., 145., 145., 141., 144., 143.,
          152., 152., 157., 155., 154., 156., 160., 157., 162., 162.,
          162., 155., 149., 81., 139., 144., 138., 143., 143., 139.,
          154., 155., 156., 156., 156., 158., 157., 165., 166., 161.,
          160., 161., 148., 69., 139., 143., 142., 143., 143., 141.,
          151., 154., 154., 157., 156., 155., 159., 162., 165., 164.,
          159., 156., 146., 73., 139., 140., 143., 142., 144., 141.,
          152., 153., 156., 156., 155., 156., 108., 102., 163., 160.,
          161., 149., 62., 63., 135., 140., 141., 144., 142., 142., 153.,
          153., 155., 156., 158., 157., 147., 163., 162., 138., 159.,
          146., 70., 55., 52., 141., 141., 138., 145., 141., 153., 152.,
          156., 155., 153., 158., 165., 162., 162., 161., 156., 154.,
          143., 63., 137., 143., 144., 139., 139., 139., 152., 155.,
          156., 155., 159., 158., 163., 165., 163., 161., 157., 159.,
          141., 57., 137., 137., 144., 139., 141., 142., 154., 156.,
          154., 156., 157., 161., 163., 161., 159., 157., 155., 153.,
          143., 52., 141., 139., 136., 134., 137., 143., 151., 157.,
          160., 159., 162., 162., 166., 166., 161., 158., 153., 155.,
          135., 54., 124., 117., 137., 136., 137., 139., 154., 156.,
          156., 159., 158., 156., 168., 162., 158., 158., 153., 153.,
          133., 53., 141., 144., 139., 136., 133., 139., 154., 156.,
          160., 161., 162., 158., 157., 160., 156., 159., 158., 151.,
          134., 51., 117., 141., 137., 133., 138., 135., 151., 145.,
          155., 157., 156., 155., 156., 154., 159., 160., 160., 149.,
          135., 59., 137., 144., 135., 136., 135., 137. ]
      - [ 136., 140., 140., 148., 150., 150., 109., 145., 140., 135.,
          146., 141., 144., 139., 142., 139., 136., 132., 129., 129.,
          138., 142., 146., 148., 150., 149., 150., 112., 144., 136.,
          149., 144., 142., 142., 143., 142., 136., 135., 132., 129.,
          139., 146., 148., 152., 150., 150., 151., 156., 76., 139.,
          142., 143., 145., 144., 144., 142., 141., 136., 135., 133.,
          146., 146., 150., 151., 152., 153., 151., 153., 145., 137.,
          144., 144., 146., 144., 143., 142., 141., 140., 138., 137.,
          147., 143., 148., 152., 155., 154., 158., 150., 151., 75.,
          142., 144., 145., 146., 144., 143., 144., 142., 141., 136.,
          146., 152., 152., 155., 154., 155., 162., 158., 149., 76.,
          141., 146., 146., 147., 144., 145., 142., 143., 142., 140.,
          153., 152., 155., 156., 160., 160., 160., 165., 154., 63.,
          136., 144., 144., 144., 147., 145., 144., 144., 142., 119.,
          150., 153., 152., 156., 160., 164., 162., 158., 157., 144.,
          134., 146., 144., 143., 145., 146., 144., 146., 142., 140.,
          152., 151., 157., 158., 162., 160., 159., 157., 155., 140.,
          132., 145., 141., 144., 148., 143., 145., 144., 144., 143.,
          149., 153., 156., 155., 163., 163., 164., 160., 151., 146.,
          132., 141., 144., 143., 144., 144., 145., 144., 145., 142.,
          152., 152., 158., 157., 162., 165., 161., 157., 163., 149.,
          129., 136., 145., 144., 142., 144., 143., 146., 144., 143.,
          151., 154., 157., 158., 163., 164., 162., 158., 159., 148.,
          59., 137., 147., 146., 145., 144., 146., 144., 146., 145.,
          151., 153., 157., 156., 162., 163., 163., 157., 154., 148.,
          53., 135., 143., 141., 144., 141., 142., 144., 144., 143.,
          155., 155., 153., 158., 160., 163., 159., 158., 160., 156.,
          52., 134., 139., 144., 139., 144., 143., 145., 141., 142.,
          151., 154., 158., 161., 159., 160., 143., 156., 156., 73., 70.,
          50., 54., 144., 144., 143., 144., 140., 143., 139., 152., 153.,
          160., 161., 159., 160., 157., 159., 151., 67., 69., 63., 140.,
          139., 139., 137., 142., 141., 147., 139., 150., 155., 171.,
          133., 160., 159., 158., 154., 151., 152., 128., 144., 144.,
          140., 141., 142., 137., 145., 143., 138., 154., 159., 73., 80.,
          164., 159., 157., 158., 155., 151., 126., 113., 141., 136.,
          141., 136., 138., 142., 143., 137., 153., 156., 154., 161.,
          158., 157., 158., 162., 159., 152., 132., 71., 145., 139.,
          142., 138., 140., 145., 133., 136., 149., 152., 155., 159.,
          156., 157., 153., 160., 153., 158., 137., 44., 110., 105.,
          135., 132., 134., 133., 137., 142. ]
      - [ 136., 134., 139., 141., 77., 133., 142., 141., 144., 142.,
          142., 141., 140., 136., 138., 137., 133., 132., 125., 120.,
          137., 62., 143., 144., 92., 140., 145., 140., 145., 144., 144.,
          143., 143., 140., 140., 138., 136., 132., 130., 126., 143.,
          143., 146., 92., 144., 133., 146., 141., 145., 144., 145.,
          144., 142., 142., 139., 140., 139., 137., 133., 128., 146.,
          148., 144., 152., 85., 145., 139., 144., 147., 144., 144.,
          145., 143., 145., 141., 139., 137., 139., 138., 131., 151.,
          149., 150., 152., 143., 78., 143., 152., 142., 147., 148.,
          146., 145., 144., 145., 143., 142., 139., 135., 132., 100.,
          148., 154., 153., 151., 93., 140., 146., 147., 146., 149.,
          147., 145., 147., 145., 138., 143., 142., 140., 129., 158.,
          157., 155., 156., 155., 143., 133., 142., 145., 147., 146.,
          143., 146., 145., 146., 144., 142., 143., 145., 138., 151.,
          154., 160., 159., 155., 152., 66., 133., 151., 145., 146.,
          147., 139., 143., 144., 142., 143., 145., 139., 138., 155.,
          160., 157., 158., 157., 154., 78., 136., 148., 146., 143.,
          148., 145., 145., 145., 146., 145., 145., 142., 139., 154.,
          161., 163., 160., 158., 154., 141., 132., 135., 142., 143.,
          146., 146., 146., 147., 144., 145., 144., 139., 141., 156.,
          158., 157., 164., 162., 161., 146., 129., 141., 149., 145.,
          145., 146., 147., 147., 146., 147., 143., 142., 138., 153.,
          156., 162., 164., 163., 160., 146., 72., 136., 146., 144.,
          147., 145., 143., 145., 147., 144., 145., 144., 139., 156.,
          158., 165., 162., 158., 159., 154., 77., 137., 143., 148.,
          143., 147., 145., 146., 147., 148., 146., 145., 144., 155.,
          159., 157., 160., 161., 162., 155., 136., 132., 142., 145.,
          145., 142., 145., 143., 145., 144., 146., 146., 142., 153.,
          156., 158., 159., 163., 161., 154., 150., 69., 128., 139.,
          142., 141., 142., 146., 143., 143., 142., 143., 142., 155.,
          157., 158., 157., 158., 153., 151., 144., 58., 57., 60., 143.,
          137., 139., 144., 143., 143., 142., 148., 144., 153., 155.,
          155., 158., 159., 154., 77., 81., 70., 129., 147., 145., 143.,
          145., 142., 141., 142., 139., 140., 140., 153., 152., 155.,
          153., 158., 157., 152., 149., 140., 115., 133., 136., 141.,
          136., 140., 146., 140., 141., 141., 140., 159., 156., 158.,
          156., 156., 158., 152., 149., 143., 45., 137., 138., 135.,
          144., 141., 135., 140., 140., 145., 141., 151., 152., 154.,
          153., 156., 157., 156., 152., 142., 53., 125., 141., 124.,
          133., 134., 134., 137., 134., 138., 139. ]
      - [ 138., 140., 149., 150., 156., 154., 153., 157., 160., 157.,
          154., 151., 148., 151., 150., 151., 68., 143., 139., 129.,
          145., 146., 151., 156., 158., 157., 158., 151., 153., 157.,
          153., 152., 151., 152., 151., 153., 148., 72., 137., 95., 143.,
          149., 152., 155., 158., 156., 157., 158., 159., 153., 152.,
          150., 156., 152., 153., 147., 150., 148., 144., 80., 144.,
          150., 152., 157., 161., 158., 156., 156., 160., 156., 154.,
          152., 155., 157., 150., 151., 151., 150., 141., 132., 150.,
          153., 153., 160., 160., 160., 159., 155., 153., 154., 154.,
          155., 155., 153., 160., 159., 159., 143., 85., 144., 152.,
          154., 156., 158., 156., 158., 154., 155., 154., 156., 156.,
          158., 156., 160., 158., 157., 155., 140., 142., 144., 150.,
          153., 156., 152., 156., 155., 158., 157., 156., 153., 155.,
          156., 157., 163., 159., 160., 152., 119., 140., 144., 154.,
          154., 156., 156., 154., 156., 155., 156., 156., 157., 155.,
          159., 161., 159., 158., 156., 152., 70., 143., 153., 155.,
          158., 151., 152., 154., 156., 154., 158., 155., 156., 156.,
          159., 161., 164., 161., 155., 144., 138., 143., 147., 157.,
          151., 152., 152., 155., 156., 156., 154., 157., 160., 156.,
          157., 163., 162., 165., 156., 81., 136., 141., 148., 151.,
          151., 152., 150., 152., 157., 154., 157., 158., 158., 158.,
          158., 158., 160., 163., 151., 79., 140., 154., 143., 152.,
          152., 155., 152., 155., 154., 156., 69., 80., 158., 159., 157.,
          161., 162., 161., 110., 133., 143., 146., 142., 153., 156.,
          153., 150., 155., 158., 156., 158., 33., 157., 157., 160.,
          162., 155., 156., 70., 134., 145., 146., 140., 148., 148.,
          151., 153., 156., 154., 158., 158., 162., 156., 153., 162.,
          158., 156., 143., 132., 136., 143., 142., 143., 150., 150.,
          154., 156., 155., 155., 157., 159., 159., 159., 164., 164.,
          158., 93., 77., 131., 143., 144., 142., 135., 150., 136., 157.,
          159., 159., 156., 156., 156., 160., 159., 167., 163., 159.,
          150., 61., 64., 142., 143., 137., 138., 150., 154., 151., 158.,
          157., 165., 161., 161., 153., 159., 165., 161., 155., 112.,
          133., 76., 68., 144., 139., 142., 147., 151., 152., 156., 157.,
          158., 159., 158., 158., 157., 162., 158., 146., 59., 130.,
          147., 141., 137., 141., 142., 147., 151., 152., 154., 158.,
          156., 154., 155., 155., 158., 164., 160., 154., 58., 131.,
          139., 143., 140., 139., 143., 146., 150., 155., 160., 157.,
          158., 152., 156., 155., 154., 161., 154., 64., 134., 139.,
          146., 141., 144., 139., 138. ]
      - [ 138., 145., 150., 150., 152., 149., 148., 148., 150., 150.,
          73., 147., 142., 134., 143., 141., 140., 138., 134., 131.,
          142., 149., 156., 154., 149., 151., 148., 149., 150., 155.,
          151., 115., 144., 142., 148., 144., 142., 139., 135., 135.,
          148., 153., 160., 156., 153., 150., 150., 151., 152., 153.,
          148., 153., 74., 144., 152., 144., 143., 141., 139., 135.,
          150., 147., 149., 148., 149., 151., 152., 77., 152., 151.,
          156., 149., 91., 143., 153., 150., 140., 141., 141., 138.,
          151., 154., 156., 155., 154., 151., 154., 154., 157., 157.,
          153., 146., 137., 146., 149., 147., 143., 146., 141., 139.,
          151., 156., 157., 155., 154., 154., 155., 154., 157., 153.,
          160., 149., 145., 153., 151., 147., 144., 140., 136., 139.,
          151., 156., 154., 157., 154., 152., 153., 153., 161., 160.,
          158., 139., 145., 148., 156., 151., 144., 146., 146., 141.,
          154., 151., 151., 150., 153., 153., 155., 153., 158., 160.,
          153., 85., 149., 152., 147., 147., 147., 144., 146., 142.,
          151., 152., 154., 155., 152., 152., 157., 155., 161., 159.,
          158., 84., 143., 155., 146., 143., 145., 147., 142., 141.,
          153., 139., 153., 150., 154., 153., 155., 155., 163., 159.,
          154., 92., 138., 152., 146., 141., 145., 144., 144., 143.,
          148., 154., 154., 154., 155., 154., 156., 154., 158., 154.,
          154., 136., 146., 145., 142., 144., 144., 143., 143., 141.,
          151., 151., 152., 155., 156., 153., 154., 156., 154., 154.,
          152., 134., 149., 153., 145., 143., 143., 142., 144., 144.,
          152., 153., 150., 151., 155., 152., 153., 158., 156., 155.,
          90., 140., 156., 150., 143., 143., 144., 145., 144., 141.,
          149., 147., 151., 157., 156., 156., 154., 155., 157., 154.,
          76., 136., 147., 145., 142., 144., 144., 145., 144., 139.,
          150., 149., 117., 159., 152., 156., 155., 159., 157., 159.,
          71., 145., 148., 145., 140., 143., 147., 144., 143., 138.,
          151., 150., 147., 158., 160., 155., 160., 161., 105., 89., 67.,
          67., 146., 144., 146., 147., 146., 142., 142., 141., 149.,
          152., 156., 156., 152., 155., 153., 157., 158., 139., 67., 70.,
          151., 148., 147., 148., 143., 142., 143., 142., 150., 149.,
          156., 154., 157., 158., 160., 158., 158., 77., 136., 150.,
          147., 149., 143., 145., 142., 139., 140., 141., 148., 148.,
          156., 154., 156., 160., 158., 154., 160., 70., 134., 151.,
          146., 135., 142., 146., 143., 136., 139., 137., 147., 158.,
          152., 151., 155., 153., 154., 153., 151., 70., 141., 142.,
          142., 147., 141., 143., 140., 135., 138., 137. ]
      - [ 145., 147., 146., 148., 148., 150., 155., 80., 147., 145.,
          144., 145., 145., 147., 144., 141., 139., 137., 132., 128.,
          146., 150., 151., 148., 151., 150., 155., 154., 74., 152.,
          131., 148., 142., 136., 145., 140., 139., 137., 135., 130.,
          152., 152., 152., 151., 151., 153., 153., 156., 156., 146.,
          137., 149., 145., 147., 144., 145., 140., 138., 137., 133.,
          151., 151., 151., 149., 151., 152., 154., 151., 151., 76.,
          146., 150., 150., 152., 148., 144., 144., 143., 136., 134.,
          149., 153., 154., 152., 149., 152., 161., 162., 157., 153.,
          145., 141., 147., 148., 144., 143., 143., 143., 139., 135.,
          156., 153., 153., 154., 154., 153., 155., 159., 159., 149.,
          148., 160., 149., 148., 149., 145., 147., 143., 140., 137.,
          157., 152., 153., 152., 154., 152., 155., 154., 155., 119.,
          149., 154., 154., 151., 147., 145., 146., 144., 137., 139.,
          153., 157., 156., 155., 153., 156., 161., 161., 158., 86.,
          145., 157., 147., 148., 147., 149., 147., 146., 143., 142.,
          156., 153., 155., 155., 150., 157., 162., 160., 156., 84.,
          146., 156., 143., 145., 148., 145., 148., 144., 143., 142.,
          156., 151., 155., 155., 156., 158., 157., 158., 155., 82.,
          141., 157., 143., 147., 146., 144., 145., 144., 145., 142.,
          153., 155., 155., 154., 137., 154., 161., 156., 146., 81.,
          143., 155., 147., 145., 144., 146., 145., 146., 143., 142.,
          153., 155., 155., 155., 158., 157., 155., 159., 156., 83.,
          143., 153., 148., 146., 144., 148., 145., 144., 143., 142.,
          153., 153., 156., 159., 151., 156., 157., 158., 152., 135.,
          153., 155., 148., 149., 149., 145., 143., 145., 143., 143.,
          150., 152., 155., 155., 155., 157., 154., 158., 148., 128.,
          152., 154., 150., 144., 148., 146., 142., 145., 142., 143.,
          153., 155., 155., 153., 153., 158., 156., 156., 150., 140.,
          145., 151., 145., 144., 146., 142., 147., 144., 142., 145.,
          151., 154., 154., 157., 150., 159., 161., 162., 151., 135.,
          145., 148., 146., 146., 146., 142., 145., 145., 145., 145.,
          74., 37., 156., 154., 151., 160., 162., 91., 85., 70., 70.,
          147., 148., 146., 149., 144., 140., 139., 142., 144., 67.,
          151., 156., 152., 157., 162., 158., 145., 85., 61., 78., 148.,
          144., 143., 148., 144., 143., 144., 146., 144., 152., 152.,
          154., 156., 153., 155., 158., 142., 78., 137., 153., 146.,
          139., 143., 145., 145., 141., 140., 141., 145., 153., 150.,
          155., 155., 158., 157., 157., 152., 76., 147., 142., 144.,
          146., 141., 148., 144., 138., 140., 139., 143. ]
      - [ 142., 142., 144., 146., 149., 147., 150., 148., 146., 77.,
          142., 145., 145., 144., 143., 140., 139., 135., 129., 124.,
          142., 145., 147., 147., 150., 150., 150., 83., 146., 72., 146.,
          144., 145., 144., 144., 141., 140., 137., 134., 129., 147.,
          146., 149., 149., 151., 152., 155., 150., 100., 76., 148.,
          148., 147., 144., 144., 145., 140., 141., 137., 133., 150.,
          150., 148., 151., 153., 154., 155., 154., 150., 84., 147.,
          153., 148., 148., 144., 144., 141., 141., 136., 134., 148.,
          147., 150., 150., 149., 153., 156., 154., 146., 80., 145.,
          148., 150., 145., 146., 143., 143., 144., 141., 139., 147.,
          150., 151., 154., 156., 156., 163., 157., 148., 86., 146.,
          156., 146., 145., 147., 146., 144., 143., 139., 141., 151.,
          155., 153., 155., 155., 157., 154., 158., 153., 78., 147.,
          152., 146., 146., 146., 147., 147., 139., 142., 139., 152.,
          151., 154., 154., 153., 160., 161., 154., 153., 82., 146.,
          154., 146., 142., 147., 148., 144., 144., 142., 142., 153.,
          154., 153., 152., 156., 157., 161., 159., 158., 87., 159.,
          155., 147., 144., 148., 147., 145., 144., 143., 142., 151.,
          153., 152., 154., 154., 160., 163., 163., 152., 95., 146.,
          154., 143., 149., 146., 145., 144., 145., 145., 144., 151.,
          154., 152., 153., 155., 159., 163., 160., 154., 102., 140.,
          147., 145., 143., 147., 144., 146., 145., 146., 144., 150.,
          154., 154., 155., 156., 158., 161., 158., 156., 129., 85.,
          150., 145., 146., 145., 144., 145., 142., 142., 143., 149.,
          154., 156., 155., 155., 160., 157., 160., 156., 123., 144.,
          151., 147., 144., 149., 145., 144., 144., 144., 143., 153.,
          152., 153., 156., 155., 157., 159., 162., 152., 127., 140.,
          152., 142., 142., 146., 144., 144., 142., 142., 146., 153.,
          155., 155., 156., 154., 160., 161., 160., 147., 137., 141.,
          148., 143., 146., 143., 143., 144., 144., 145., 141., 147.,
          152., 155., 153., 153., 161., 160., 149., 139., 124., 140.,
          144., 143., 147., 143., 143., 142., 143., 146., 145., 153.,
          155., 156., 155., 148., 160., 161., 145., 144., 129., 134.,
          142., 145., 146., 148., 145., 141., 142., 145., 145., 150.,
          170., 154., 154., 155., 156., 158., 101., 97., 67., 69., 143.,
          140., 137., 145., 142., 140., 141., 143., 140., 147., 155.,
          152., 158., 158., 161., 159., 160., 150., 122., 139., 144.,
          142., 138., 145., 148., 136., 134., 140., 140., 131., 154.,
          156., 153., 155., 157., 159., 152., 135., 134., 136., 143.,
          139., 140., 140., 147., 137., 140., 134., 138. ]
      - [ 144., 143., 146., 146., 147., 150., 149., 153., 155., 147.,
          137., 147., 145., 145., 145., 141., 137., 136., 131., 127.,
          148., 150., 147., 149., 151., 153., 155., 153., 149., 145.,
          138., 151., 145., 145., 143., 144., 137., 136., 133., 131.,
          149., 150., 149., 149., 152., 153., 152., 152., 155., 85.,
          145., 149., 144., 149., 145., 144., 142., 139., 136., 134.,
          150., 148., 147., 150., 150., 156., 155., 156., 159., 142.,
          140., 143., 146., 146., 146., 146., 143., 143., 139., 133.,
          152., 152., 151., 154., 155., 155., 157., 157., 156., 150.,
          148., 148., 146., 146., 145., 144., 150., 144., 137., 138.,
          152., 154., 152., 154., 156., 158., 161., 154., 156., 149.,
          146., 145., 148., 148., 148., 147., 144., 142., 139., 142.,
          150., 154., 155., 154., 156., 160., 163., 158., 158., 146.,
          137., 154., 150., 148., 149., 148., 145., 145., 142., 143.,
          156., 154., 153., 156., 156., 158., 161., 163., 159., 143.,
          143., 150., 143., 145., 148., 144., 146., 144., 143., 140.,
          154., 151., 152., 156., 155., 157., 164., 162., 159., 150.,
          139., 155., 148., 144., 147., 144., 146., 145., 142., 143.,
          153., 153., 156., 154., 158., 160., 162., 164., 159., 143.,
          138., 152., 147., 145., 144., 146., 148., 144., 143., 140.,
          155., 153., 157., 154., 155., 155., 161., 159., 160., 166.,
          137., 155., 147., 144., 142., 147., 144., 144., 144., 142.,
          156., 154., 156., 158., 156., 158., 159., 164., 160., 111.,
          138., 150., 146., 147., 146., 144., 145., 143., 143., 140.,
          154., 155., 157., 156., 158., 156., 161., 162., 166., 65.,
          138., 150., 144., 145., 145., 143., 142., 143., 144., 145.,
          153., 156., 159., 158., 156., 156., 161., 161., 96., 78., 62.,
          146., 148., 146., 144., 145., 142., 141., 140., 140., 143.,
          32., 69., 157., 157., 158., 161., 162., 86., 78., 64., 61.,
          144., 146., 145., 144., 140., 144., 143., 143., 153., 150.,
          68., 156., 151., 156., 164., 165., 162., 65., 135., 148., 143.,
          144., 142., 145., 143., 142., 142., 144., 154., 156., 159.,
          158., 156., 160., 162., 162., 159., 64., 138., 144., 140.,
          143., 137., 143., 141., 145., 140., 138., 152., 154., 156.,
          157., 155., 159., 159., 159., 153., 59., 133., 143., 143.,
          140., 136., 138., 141., 141., 140., 138., 156., 157., 156.,
          158., 156., 159., 155., 157., 146., 58., 141., 143., 140.,
          145., 143., 139., 140., 142., 143., 138., 152., 155., 155.,
          152., 155., 156., 160., 163., 150., 56., 120., 139., 140.,
          138., 138., 142., 136., 137., 137., 137. ]
      - [ 140., 143., 145., 148., 148., 155., 150., 149., 145., 139.,
          146., 141., 145., 144., 142., 142., 139., 136., 130., 126.,
          143., 146., 147., 149., 152., 153., 153., 59., 149., 142.,
          146., 144., 141., 146., 141., 141., 142., 138., 133., 131.,
          149., 149., 151., 152., 150., 154., 154., 151., 148., 144.,
          150., 142., 148., 143., 144., 144., 141., 137., 135., 133.,
          150., 152., 149., 153., 155., 157., 154., 156., 135., 154.,
          146., 154., 146., 147., 145., 143., 143., 140., 136., 134.,
          148., 148., 152., 156., 135., 152., 154., 154., 149., 139.,
          143., 146., 149., 147., 147., 143., 145., 145., 142., 136.,
          150., 151., 152., 155., 159., 159., 158., 154., 149., 110.,
          150., 149., 147., 147., 148., 148., 145., 144., 140., 140.,
          149., 155., 154., 156., 158., 159., 155., 156., 148., 96.,
          149., 152., 148., 148., 148., 149., 146., 143., 142., 140.,
          152., 154., 154., 156., 156., 164., 163., 157., 152., 87.,
          154., 153., 148., 146., 147., 148., 145., 145., 142., 143.,
          154., 155., 156., 155., 158., 160., 164., 160., 156., 83.,
          148., 154., 146., 146., 148., 148., 145., 143., 143., 136.,
          153., 156., 154., 156., 156., 162., 167., 164., 152., 79.,
          143., 156., 147., 147., 145., 147., 147., 143., 143., 141.,
          154., 157., 156., 157., 158., 162., 166., 162., 161., 62.,
          140., 152., 146., 147., 148., 146., 146., 145., 146., 144.,
          156., 154., 156., 157., 160., 159., 162., 160., 157., 65.,
          143., 150., 146., 147., 144., 147., 148., 147., 143., 145.,
          152., 158., 154., 160., 160., 159., 165., 162., 160., 64.,
          138., 152., 149., 145., 150., 147., 144., 144., 143., 144.,
          158., 155., 156., 159., 154., 160., 164., 163., 162., 68.,
          143., 151., 148., 145., 144., 147., 146., 144., 144., 142.,
          150., 155., 160., 156., 157., 161., 163., 157., 155., 60.,
          140., 146., 143., 147., 145., 146., 140., 146., 144., 147.,
          154., 157., 157., 156., 153., 160., 160., 157., 150., 68.,
          144., 144., 146., 144., 145., 144., 144., 145., 146., 145.,
          146., 155., 156., 155., 154., 159., 163., 160., 158., 60., 30.,
          141., 141., 146., 144., 145., 141., 144., 144., 143., 156.,
          155., 156., 158., 161., 162., 163., 108., 92., 57., 61., 60.,
          140., 140., 145., 146., 143., 141., 142., 141., 78., 159.,
          158., 157., 156., 160., 162., 153., 151., 59., 131., 143.,
          145., 141., 141., 142., 137., 142., 140., 143., 98., 67., 158.,
          141., 156., 152., 156., 161., 146., 59., 145., 144., 137.,
          141., 137., 143., 142., 141., 141., 142. ]
      - [ 143., 144., 150., 151., 156., 152., 152., 150., 151., 151.,
          151., 151., 145., 77., 136., 141., 140., 138., 137., 130.,
          144., 150., 159., 154., 156., 154., 153., 151., 154., 154.,
          154., 152., 151., 76., 143., 147., 143., 139., 137., 133.,
          147., 153., 158., 157., 155., 152., 153., 153., 156., 156.,
          154., 155., 114., 135., 142., 146., 147., 141., 138., 136.,
          153., 154., 157., 154., 154., 149., 153., 158., 94., 155.,
          156., 156., 93., 149., 146., 149., 145., 143., 140., 138.,
          154., 155., 158., 159., 156., 157., 156., 157., 157., 157.,
          159., 154., 82., 146., 149., 152., 142., 145., 143., 139.,
          153., 153., 159., 160., 156., 155., 155., 157., 156., 163.,
          155., 155., 88., 149., 156., 147., 144., 147., 142., 142.,
          153., 155., 155., 159., 154., 154., 158., 154., 158., 163.,
          161., 153., 88., 152., 156., 148., 145., 145., 142., 143.,
          158., 154., 155., 158., 154., 156., 156., 157., 160., 161.,
          162., 152., 149., 149., 152., 147., 143., 148., 146., 143.,
          155., 154., 157., 154., 155., 157., 154., 158., 162., 160.,
          160., 145., 145., 150., 151., 148., 142., 149., 147., 140.,
          155., 154., 153., 156., 157., 156., 157., 155., 159., 164.,
          160., 159., 142., 152., 149., 142., 142., 149., 145., 145.,
          153., 154., 159., 156., 157., 154., 156., 158., 159., 162.,
          155., 83., 139., 155., 145., 146., 142., 146., 142., 142.,
          154., 155., 156., 156., 158., 158., 156., 157., 161., 161.,
          159., 79., 140., 149., 150., 145., 144., 142., 143., 144.,
          153., 155., 149., 154., 158., 158., 155., 155., 159., 152.,
          150., 74., 143., 152., 147., 146., 144., 143., 143., 139.,
          153., 153., 155., 158., 156., 157., 154., 159., 164., 157.,
          154., 127., 148., 150., 146., 143., 144., 141., 140., 143.,
          154., 154., 153., 69., 156., 157., 157., 160., 158., 101.,
          157., 131., 145., 145., 144., 144., 142., 146., 144., 142.,
          153., 153., 155., 159., 160., 155., 159., 162., 161., 95., 68.,
          59., 62., 146., 143., 144., 144., 143., 143., 142., 154., 155.,
          157., 158., 156., 157., 158., 159., 161., 152., 61., 59., 65.,
          144., 145., 143., 142., 141., 142., 142., 151., 154., 157.,
          157., 158., 159., 165., 163., 157., 149., 60., 137., 146.,
          146., 151., 143., 147., 140., 138., 137., 152., 149., 159.,
